111051 300
</s> 0.28922 -0.46075 0.35142 -0.41104 0.16421 0.17307 -0.21562 -0.090636 -0.079495 -0.11149 0.030614 -0.0062959 0.14929 0.17588 0.023571 -0.13192 0.24037 -0.023433 -0.090424 -0.1205 0.15024 -0.04173 0.22556 0.0088108 0.037523 -0.023573 0.088627 -0.21427 0.012018 -0.057337 -0.029528 0.10135 0.1427 -0.20236 -0.046452 -0.16167 0.43107 -0.017859 -0.15654 0.14826 -0.034114 -0.14649 -0.091926 -0.16326 -0.08863 -0.057991 -0.12135 0.032937 0.20307 0.20069 0.256 -0.10217 -0.22534 -0.1053 -0.35453 0.047078 0.0064066 0.16062 0.30925 0.084114 -0.10756 0.27985 -0.13681 -0.1818 -0.23974 -0.015328 0.047659 0.18575 -0.05236 0.021459 -0.20396 0.16799 -0.164 -0.10783 0.15601 -0.12507 -0.043054 -0.12134 0.035488 -0.055631 -0.010796 -0.14874 -0.0087224 -0.10568 -0.10334 0.27871 0.072898 0.02437 -0.21292 -0.12933 0.13453 -0.29429 -0.012638 0.32057 -0.0036427 -0.0692 -0.041341 -0.082506 0.080206 -0.12415 0.098575 0.018395 -0.030875 0.14337 -0.031857 0.0083619 0.1698 -0.22698 0.018308 0.0070261 -0.11076 0.30176 0.019704 -0.096599 -0.10573 -0.10037 0.053377 0.13537 -0.19165 -0.10802 0.35025 0.037928 -0.025666 -0.13706 -0.055297 -0.25373 0.089364 0.048505 0.063653 -0.076123 0.15775 -0.16222 0.048127 0.021253 0.034688 0.025495 0.025375 0.21207 -0.056502 -0.012027 -0.21509 0.27694 -0.1712 0.23526 0.093841 0.1569 0.084581 -0.20348 0.057066 0.17313 0.21994 0.075223 0.0029434 -0.10477 0.15655 0.08439 -0.054225 0.2591 0.09501 0.12065 -0.097624 -0.39088 -0.11872 0.055564 0.0030523 -0.1682 -0.11147 -0.2611 0.075417 0.22004 -0.2144 0.18776 -0.029542 0.12228 -0.097995 0.043922 0.00088643 -0.06877 0.010332 -0.28294 0.0090767 0.14283 -0.017587 0.34911 0.022856 0.20548 0.019219 0.16139 0.076971 -0.24604 -0.035292 0.019849 -0.005259 -0.064386 0.11798 0.079227 -0.21783 0.054348 -0.10345 -0.21179 -0.0080982 0.098216 0.12251 0.04682 0.18489 0.023274 -0.18824 -0.21202 -0.001573 -0.31142 -0.10275 0.051682 -0.010912 -0.092177 -0.089845 0.083772 -0.03581 0.23526 0.00339 -0.075118 -0.037055 0.36795 -0.22527 -0.013583 -0.21753 0.020199 0.16155 0.10071 -0.071392 -0.11245 0.1506 -0.0087441 0.01535 -0.045475 -0.052137 0.01161 -0.081927 -0.11045 -0.088656 0.076494 0.0027199 0.047671 -0.13635 0.071316 0.27536 0.13012 0.12835 0.068754 -0.067035 0.27232 -0.15474 -0.10152 -0.13648 0.11222 -0.0099446 -0.30343 -0.13898 0.16141 0.040906 0.17311 -0.17253 -0.034614 0.040535 0.39172 0.085643 -0.10927 -0.017601 -0.32394 -0.061749 -0.41945 -0.40244 0.092796 0.2124 -0.11956 -0.017501 -0.060142 0.15649 -0.15314 -0.049023 0.011875 0.25828 0.097162 -0.036877 -0.073488 -0.31932 0.04429 0.21113 0.18836 -0.52352 -0.081093 0.12632 -0.20521 -0.015346 0.20426 -0.20942 0.10423 -0.16121 0.13313 -0.23465 0.0053066 
. 0.056857 -0.051956 0.27326 -0.46071 -0.092431 0.29899 -0.23999 -0.034116 -0.028948 -0.060919 0.046351 -0.046025 0.02116 0.21137 -0.090016 -0.04249 -0.10974 0.043862 -0.025069 -0.14857 0.029323 0.092049 0.1074 -0.11212 -0.11129 -0.037896 0.048354 -0.2177 -0.037957 -0.060364 0.098121 0.053865 -0.014206 0.017839 -0.13304 -0.050629 0.07498 -0.089129 -0.051945 0.064029 0.023864 -0.0065933 0.13133 -0.28459 0.20212 -0.026394 -0.030135 0.0649 0.10931 0.040948 0.12878 -0.04202 -0.078563 -0.016322 -0.13669 0.04769 0.14753 0.11339 0.10809 0.062785 -0.19802 0.16453 -0.058588 -0.05849 -0.03865 -0.17617 -0.1115 -0.012085 0.015707 0.076853 -0.11019 0.0066043 -0.058453 -0.0188 0.15071 -0.1378 0.12275 -0.05664 0.071154 0.026163 -0.043365 -0.038033 -0.014248 -0.061539 -0.012662 0.074463 -0.088092 0.054299 0.075228 -0.021442 0.010453 0.050412 -0.074295 0.019872 0.049167 -0.056176 -0.10473 0.16563 0.12843 0.044255 -0.062392 -0.10378 -0.1443 0.11944 0.026746 0.16505 -0.055049 -0.063078 0.080835 -0.020457 -0.044819 0.12974 0.10061 -0.026543 0.00085757 0.055645 0.11948 0.0060683 -0.012937 0.089136 0.1349 -0.20723 -0.091012 0.0053755 -0.12596 -0.16996 0.29034 -0.18323 -0.084379 -0.015998 0.15756 -0.018649 0.0024815 -0.17977 0.087252 0.11225 -0.064339 0.063719 -0.054939 0.12258 -0.18201 0.13309 0.094422 0.21075 0.1186 -0.1256 -0.025125 0.019638 -0.11898 -0.042123 0.010488 -0.11453 0.24084 0.014377 0.065836 -0.14333 0.015141 0.181 0.18458 0.17462 -0.12133 -0.009879 -0.099906 -0.12319 0.083214 -0.14751 -0.14448 -0.14138 0.12092 0.07143 -0.046933 0.041118 -0.0010656 0.13243 -0.16132 -0.0033545 0.064775 -0.080659 0.088812 -0.26851 -0.32682 0.027216 -0.12577 0.13937 0.098527 -0.060459 -0.043338 -0.044288 -0.042566 0.040217 0.058051 0.065905 0.14506 -0.061236 0.017149 -0.069948 -0.21149 0.11543 -0.16486 -0.15048 0.15899 -0.037115 -0.0012594 0.068619 0.041491 -0.091243 -0.041969 -0.11193 0.0059694 -0.20431 -0.20005 0.092947 0.056198 -0.058748 -0.060437 0.19373 0.028445 0.037236 0.072179 -0.026794 -0.067925 0.045572 -0.0050182 0.073284 -0.19174 -0.10344 -0.11012 -0.091861 -0.015515 -0.077527 -0.0081125 -0.094633 -0.017778 -0.032551 0.03989 -0.079704 -0.009064 -0.09813 0.10171 0.039219 0.10889 -0.039129 0.011014 0.032558 0.0010479 -0.04008 0.0069764 0.0036087 -0.013945 0.17785 -0.0030685 0.20397 -0.039429 0.071673 -0.19985 -0.19914 -0.057142 0.08412 -0.18126 0.28589 -0.025851 0.033137 0.10591 0.2526 0.044792 0.047398 -0.088104 -0.21021 -0.042949 -0.075586 -0.19448 -0.057406 0.10961 -0.043815 0.13866 -0.070032 0.069243 -0.054571 0.04147 0.15273 -0.0067433 0.010604 0.0276 -0.070456 -0.050473 0.1265 0.25396 0.17074 -0.19267 -0.0025199 -0.038779 -0.30563 0.077991 0.13188 -0.08366 0.057451 -0.19495 -0.069453 -0.16064 -0.098923 
, 0.20132 0.010376 0.16235 -0.27298 0.039575 0.22115 -0.10703 -0.089337 -0.019734 -0.040641 0.060606 0.020317 0.01139 0.12455 -0.19771 -0.19208 0.011446 0.047472 -0.0086267 -0.13171 0.16265 0.13131 0.035543 -0.064897 -0.069441 -0.034721 0.044049 -0.16109 0.0057406 -0.027192 -0.047153 0.0751 -0.1214 0.043709 -0.043388 -0.19764 0.23133 -0.061207 0.003943 0.23344 0.013143 -0.049553 0.045145 -0.14777 0.13616 -0.070055 0.082417 0.042809 0.21347 -0.074479 0.065698 -0.018479 -0.074487 -0.062651 -0.13854 -0.0037865 0.024165 0.13881 -0.045226 0.17118 -0.095896 0.11095 -0.042478 -0.25836 -0.073653 -0.079577 -0.14143 0.10467 -0.016882 0.01106 -0.0337 -0.0056643 -0.25329 -0.0047637 0.084428 -0.11058 0.13527 -0.044014 0.10956 0.028919 -0.055579 0.0054216 -0.0063438 -0.084744 0.076347 0.042285 -0.01818 -0.026757 -0.15339 -0.21064 0.067622 -0.035973 -0.049801 0.10212 -0.025203 0.10096 -0.063524 0.10274 0.023295 0.085574 -0.24675 -0.17766 -0.085092 0.057953 -0.015669 0.058381 0.07239 -0.04815 0.12023 0.039538 -0.032813 0.081705 0.22117 0.0056921 -0.060281 -0.0044239 0.0042914 0.032582 0.070959 0.064393 0.10078 -0.18512 -0.0069208 -0.1013 -0.17805 -0.23741 0.25595 -0.10206 -0.086413 0.04197 0.14749 -0.13514 -0.099796 -0.026249 0.087611 -0.073098 -0.10105 -0.031685 0.00074453 0.003895 -0.29316 0.15227 0.12435 0.16154 0.060563 0.015597 0.064099 -0.023629 -0.11912 -0.0048181 0.048679 -0.021203 0.20704 0.031937 0.059534 -0.10469 -0.27658 0.1851 -0.043932 0.13621 0.065153 -0.054377 0.04423 -0.061533 0.049008 -0.1977 -0.011365 -0.033723 0.035109 -0.011275 -0.14128 0.13575 -0.070453 0.1479 -0.11463 0.12409 0.13165 -0.0022781 -0.090064 -0.099528 -0.074828 -0.076174 -0.092693 0.25677 0.01316 0.068883 -0.13932 0.081707 0.053813 -0.00074675 -0.020582 -0.044274 -0.051166 0.039138 -0.07003 -0.022407 -0.32211 0.02344 -0.20095 -0.11799 0.19371 0.016648 0.056803 -0.00055371 0.10025 -0.074327 -0.065021 0.0066075 -0.091382 -0.073934 -0.14649 0.083694 -0.035213 -0.087283 -0.057006 0.077968 0.038763 0.17835 0.081894 -0.0971 -0.031871 0.018737 -0.019699 0.097352 -0.11615 -0.034378 -0.12198 0.0079757 0.016624 -0.068652 0.034285 0.15716 0.036117 -0.052159 -0.047579 -0.040863 0.052896 -0.022907 -0.026849 0.058331 0.089692 -0.10283 -0.011006 0.18944 0.074844 -0.04362 0.13386 -0.018465 0.0054596 0.15301 0.067808 0.080059 -0.087902 0.022378 -0.059758 -0.20054 -0.092356 0.087527 0.051243 0.12098 -0.080872 -0.10659 0.067997 0.18941 -0.046046 -0.0026956 -0.055105 -0.14711 0.10203 -0.091393 -0.15196 -0.13909 0.0025392 -0.057733 -0.013033 -0.13366 0.10932 -0.1449 0.00070433 0.066741 0.068789 -0.017327 -0.10317 -0.017664 0.05046 0.11481 0.039092 0.18282 -0.35158 -0.022102 0.012218 -0.29477 0.082204 0.082302 -0.17245 0.0029101 -0.21745 -0.093056 -0.14075 -0.13264 
the 0.010399 -0.18291 0.076084 -0.18541 0.099364 0.19839 -0.16722 -0.013452 -0.00028677 0.0026706 0.097921 -0.11183 -0.13611 0.13828 0.0013663 0.089178 0.062126 0.13424 0.019727 -0.13894 0.064864 0.011646 -0.069312 0.15011 -0.0083578 -0.073977 0.25229 -0.048231 0.086696 0.14083 0.02218 0.092541 0.029381 -0.025967 -0.066355 -0.013935 0.069898 0.070866 -0.21941 0.07805 0.063172 -0.033124 0.065174 -0.0091945 0.24218 0.13306 -0.077687 0.06803 0.070054 0.11193 0.03221 -0.27921 -0.034977 0.017082 -0.014469 0.014274 0.097878 0.068483 0.078639 0.06009 -0.14036 0.21027 -0.059627 -0.11493 -0.047982 -0.14682 -0.2126 0.094046 0.074551 -0.095217 -0.018776 -0.022611 0.13751 -0.020693 0.2187 -0.23951 -0.056583 -0.016129 0.15558 0.06521 -0.23285 -0.077124 -0.054202 0.097352 -0.066922 -0.016582 0.097675 -0.051532 -0.017892 -0.17215 0.11336 0.086711 -0.096829 0.13821 -0.15401 -0.010456 -0.23204 0.089269 0.10648 0.040647 0.067472 -0.22071 -0.074981 0.27198 0.016319 0.077116 -0.091699 -0.051382 0.02129 0.062556 0.057433 0.01485 0.013432 -0.11731 -0.12586 -0.021894 0.085081 0.11237 -0.12249 -0.12282 0.089167 -0.0054447 0.088936 0.098517 -0.099624 -0.14896 0.14992 0.041353 -0.095574 0.039965 0.16499 -0.14502 -0.051162 -0.12371 0.071031 0.0045226 -0.22223 -0.08847 -0.078513 -0.067817 -0.22093 0.10089 0.17588 0.058044 0.12856 -0.15203 -0.10861 0.013917 -0.081659 0.022254 0.00016271 -0.10578 0.16115 0.042607 -0.039906 -0.10973 -0.16324 0.025601 -0.020199 0.26956 0.01958 -0.1139 -0.013617 0.065689 0.1475 -0.00594 0.088879 -0.046882 0.1772 -0.048547 -0.072382 0.025995 0.027072 0.12051 -0.035767 -0.064676 0.13846 -0.03479 0.1552 -0.26046 -0.3161 -0.056528 -0.076097 -0.031598 0.11626 -0.10901 -0.049858 0.19496 -0.098112 -0.041852 -0.062388 0.10709 0.19639 0.15981 -0.091911 -0.022524 -0.2705 -0.033326 -0.11177 -0.20585 0.14961 -0.00068064 -0.068284 -0.043337 0.0074121 -0.041801 -0.06024 -0.025963 0.091652 -0.16726 -0.16791 0.13784 0.032672 0.11739 0.090783 0.0193 0.052226 -0.04193 0.059504 -0.046264 -0.016563 -0.04058 -0.021775 0.081641 -0.0046449 0.0043718 -0.10769 -0.040876 0.068326 0.050909 -0.19227 0.083436 0.063457 -0.06609 0.13743 -0.26015 -0.013104 -0.035255 -0.05689 -0.072095 0.20966 0.092019 -0.014434 0.11185 -0.19237 -0.075239 -0.075605 -0.19011 -0.064409 0.23007 -0.022825 0.24048 -0.08033 0.019474 -0.11032 -0.079904 -0.12847 0.2155 -0.098112 0.19185 -0.061134 -0.038616 -0.0043824 0.10866 0.008 0.095298 -0.091967 -0.16894 0.13984 -0.13564 -0.2104 0.092979 0.053614 -0.014827 0.17542 0.085917 0.03991 -0.23365 0.12 0.17197 0.039991 0.035964 -0.023448 0.12637 -0.21453 0.16352 -0.0075725 0.21089 -0.18115 -0.047806 -0.19214 -0.22286 0.18172 0.17968 -0.037763 0.12955 -0.093836 -0.13616 -0.22401 -0.05523 
of 0.152 -0.30387 0.19315 -0.27381 0.031657 -0.021603 -0.14734 0.056411 0.055352 0.10192 0.15333 -0.065717 0.047937 0.22662 -0.030293 0.042524 -0.066271 0.18054 -0.13087 -0.15147 0.11548 0.11954 -0.10083 -0.04824 0.057461 -0.18379 0.18598 -0.19291 -0.065628 -0.015283 -0.06061 -0.011891 0.098398 0.12015 -0.09713 -0.20831 0.070985 0.043025 -0.1236 0.064096 0.22336 -0.033307 0.087605 -0.10943 0.083791 0.089888 -0.026923 0.051387 0.28972 0.15139 0.0099832 -0.15328 -0.15758 -0.037465 0.20731 0.038286 0.16805 -0.0039052 0.18805 0.04329 -0.11405 0.3186 -0.033822 -0.097701 -0.16085 -0.24612 -0.24673 0.12623 0.032184 0.027124 0.09692 -0.15171 0.11189 -0.09522 0.16055 -0.27642 0.091136 -0.03181 0.040239 -0.092068 -0.11764 -0.14466 0.039324 -0.018842 0.063901 0.079858 -0.14211 -0.050392 -0.041744 -0.22764 0.25444 -0.042312 -0.11426 0.090751 -0.13012 -0.078833 -0.16547 0.063562 0.20837 0.055514 0.0050153 -0.13101 0.029067 0.11206 0.14911 -0.016018 -0.06965 -0.034301 0.043024 0.023441 0.09281 0.13711 0.14221 -0.2022 -0.32416 -0.066022 0.11006 0.014027 -0.10504 -0.063046 0.1636 0.13258 0.028928 0.023726 -0.061891 0.016524 0.25289 -0.0044723 -0.052166 -0.027699 0.038357 -0.086458 0.035396 -0.21215 0.029495 0.072075 -0.23056 -0.094939 -0.011283 -0.09723 -0.29866 0.099484 0.28512 0.1077 0.035942 -0.15462 -0.069743 -0.1494 0.054638 0.053594 0.12574 -0.16119 0.081381 0.023411 -0.020761 0.04084 -0.13096 0.050483 0.0029795 0.22291 0.082668 -0.14186 -0.1991 0.033784 0.079241 0.024738 0.038078 -0.094141 0.05223 0.049677 -0.096407 0.052373 -0.075108 -0.068718 -0.069138 -0.13094 -0.034077 -0.13846 0.16386 -0.26645 -0.14363 -0.034031 -0.1364 0.01053 0.11249 -0.0095874 -0.026641 0.27509 0.080893 -0.063694 0.082667 -0.067101 0.085539 0.15598 -0.0014084 0.021236 -0.21938 -0.19356 -0.16517 -0.088198 0.3651 -0.12782 -0.022092 -0.13848 0.074826 -0.11672 -0.15319 0.098303 0.096584 -0.048456 -0.14025 0.054146 0.12095 -0.020803 0.18423 0.061669 0.020085 -0.0048278 0.069123 -0.017794 -0.074059 -0.024735 -0.02235 -0.05473 -0.2299 0.099174 -0.016623 -0.21078 0.21506 0.030604 -0.067963 0.14322 0.087946 -0.1371 0.16034 -0.12452 -0.091314 -0.016043 0.058554 0.025629 0.1728 0.092463 -0.068929 0.2469 -0.0054026 -0.069843 -0.080021 -0.16762 0.0053869 0.34893 0.059604 0.21905 -0.074548 -0.055138 -0.077719 -0.14034 0.006186 0.24022 -0.10647 0.14713 -0.16463 -0.0068313 0.019942 0.061868 0.0081375 0.16921 -0.087173 -0.23594 0.24109 -0.093363 -0.22897 0.25335 0.11631 -0.14167 0.034518 0.058257 0.046457 -0.25188 0.13996 0.10514 -0.10776 0.086381 -0.017083 0.14076 -0.25332 0.29013 -0.026532 0.1288 -0.3296 -0.1732 -0.18724 -0.16799 0.10372 0.077217 -0.21558 0.16684 -0.14167 -0.11314 -0.22346 0.026356 
' 0.15977 0.15164 0.026385 -0.24701 0.19036 0.27808 -0.32979 -0.0022612 -0.26852 -0.16038 0.17061 -0.003773 0.07514 0.28534 0.072219 -0.14805 0.18111 0.11136 -0.11691 -0.099183 0.042106 -0.045972 0.060995 0.069956 -0.22294 0.16039 0.21913 0.1825 -0.079788 0.070686 -0.033894 0.16901 0.021055 0.001155 -0.14678 -0.059742 -0.12066 0.17759 0.12075 0.14376 0.13722 0.11582 0.024609 0.027684 0.21747 -0.21767 0.063616 -0.0095069 0.14726 -0.061574 0.046156 -0.067633 -0.19104 -0.19487 0.065391 0.074833 -0.039953 0.19675 0.17356 -0.066693 -0.22684 0.26428 -0.11941 -0.22419 0.061452 0.044535 -0.05809 0.24931 -0.0025688 0.090969 0.303 -0.0018062 -0.28857 -0.014478 0.094316 -0.12033 0.14032 -0.20069 0.086178 -0.13606 -0.052491 0.087851 -0.085296 0.21093 0.10044 -0.029238 0.28646 -0.15073 0.08903 -0.076189 0.020224 0.037354 -0.1055 -0.012144 0.027394 0.013416 -0.30001 0.092328 0.3197 0.070161 0.070852 -0.0039196 -0.00085505 0.018106 -0.15757 0.1457 -0.11213 0.055792 -0.034781 -0.075906 -0.05051 -0.051775 0.02497 0.019679 -0.1865 -0.044735 0.15812 0.017148 -0.053296 -0.021899 0.063507 -0.051744 0.04769 -0.17754 -0.21529 -0.030216 0.3961 0.047507 -0.088135 0.092663 0.17861 -0.22815 0.037425 -0.091712 0.11208 0.091722 -0.025873 0.10735 -0.08182 -0.11909 -0.13764 -0.09944 0.11976 0.20963 0.15348 0.16961 -0.0063729 -0.047677 -0.23569 -0.070279 0.18486 -0.010667 0.22941 0.035129 0.080122 0.039886 -0.26868 0.14688 -0.049099 0.26128 0.012303 -0.19097 -0.14644 0.020991 0.13326 -0.15212 -0.12643 -0.032614 -0.022713 0.096956 0.042609 0.040968 -0.013722 0.18879 -0.021067 0.056122 0.25831 -0.098074 0.097444 -0.043118 -0.13828 0.048283 -0.19204 0.15474 0.075592 0.069428 0.097791 0.13688 -0.045443 -0.16016 0.1047 0.085735 0.19008 -0.066893 0.015728 0.036265 -0.28007 -0.025483 0.023787 -0.17614 0.25816 -0.086048 0.17722 -0.045644 -0.08493 0.011294 -0.17687 -0.09317 -0.0623 -0.20414 -0.16803 -0.1556 0.062529 0.0009914 0.042785 0.032501 0.26892 -0.038444 0.15666 -0.016142 -0.045345 -0.16176 -0.21293 -0.0058252 -0.26016 0.026589 0.0031957 0.16343 -0.12345 -0.13105 -0.2565 0.011907 0.2593 -0.05669 -0.20541 0.014891 0.14748 0.044611 -0.29448 0.022538 0.16455 -0.27927 -0.13387 0.02908 -0.050387 -0.19186 0.099817 -0.11434 0.015586 0.040635 0.065596 0.037183 -0.033343 -0.032237 0.017675 -0.28525 -0.16198 0.27285 0.093623 0.29247 0.014918 0.018632 0.0051434 0.19067 0.008834 0.2465 0.15377 -0.15323 0.24495 -0.2022 -0.24634 0.10417 -0.066781 0.0015546 0.14611 -0.063732 0.018145 -0.11698 0.13366 0.20542 0.29858 -0.051472 0.051804 -0.064066 -0.048691 0.1882 0.17269 0.49881 -0.21354 -0.055656 0.04751 -0.35725 -0.12498 0.11733 0.062824 -0.10119 -0.20865 -0.01107 -0.10676 -0.17224 
in 0.16634 -0.087657 0.093527 -0.35944 -0.043146 0.27784 -0.18632 -0.017069 0.13457 0.036473 -0.018171 -0.051409 -0.043888 0.10392 -0.025736 0.14737 0.14523 0.1326 0.012337 -0.2723 0.026947 0.066402 -0.041046 0.16667 -0.084669 0.04774 0.077406 0.037408 -0.095252 0.10058 0.067159 0.15074 0.10079 0.25552 -0.064015 -0.067525 0.11404 -0.0094943 -0.25809 0.14778 -0.062303 -0.047417 0.10621 -0.20722 0.1668 0.011905 -0.11424 -0.029148 0.033871 0.070341 0.23682 -0.11431 -0.14471 -0.032127 -0.030777 0.13013 0.087437 0.19786 0.14707 0.036159 -0.084811 0.21968 0.074034 -0.14384 -0.19962 -0.11872 -0.058557 0.12889 0.15021 0.18958 -0.14585 0.017084 0.013038 0.012302 0.12328 -0.13799 -0.14822 0.13965 0.19175 0.060193 -0.18319 0.11174 0.02732 0.14056 0.055599 -0.13851 0.098366 0.13784 -0.069509 -0.42988 0.0033114 0.027678 -0.03629 -0.12567 -0.082015 -0.0013497 -0.1765 0.083949 0.066652 0.16886 0.040361 -0.21968 0.020569 0.37539 0.063831 -0.0045825 -0.043956 -0.0085839 0.23843 0.00064433 -0.03208 -0.093995 0.0369 -0.069696 -0.0064156 -0.073577 0.097326 0.08866 -0.023683 -0.22654 0.20198 0.057883 0.024787 0.15617 -0.025114 -0.13121 0.23663 0.069825 0.01893 -0.011247 0.20379 0.012437 0.010101 -0.05698 0.11108 -0.056846 -0.041683 0.0067445 -0.097267 -0.039555 -0.25464 0.11694 0.09105 0.18127 0.074324 -0.11719 0.079185 -0.057761 -0.044968 -0.17848 -0.048576 -0.086028 0.17837 0.2265 0.0016192 0.021557 -0.13057 0.19967 0.1425 0.14203 0.074515 -0.16204 -0.078747 -0.025936 0.16551 0.0089422 -0.023963 -0.19544 0.045002 0.17889 -0.23461 -0.093699 0.029734 0.23608 -0.10191 0.013973 0.0075787 -0.0040358 0.1437 -0.332 -0.15482 -0.095936 -0.22387 0.042727 0.042317 0.10909 -0.059699 0.28314 0.11927 -0.14638 0.13821 -0.05063 0.31976 0.20595 -0.046286 -0.22834 -0.28277 -0.12297 -0.18312 -0.19604 0.16837 0.14621 -0.020683 -0.078992 -0.12442 -0.01129 -0.017729 -0.10913 0.010575 -0.13876 -0.11687 0.034715 0.027363 0.097036 0.25426 0.20773 0.053508 -0.11638 -0.13489 -0.15914 -0.056469 0.043296 -0.013997 0.069942 -0.057694 -0.077732 -0.10126 -0.19698 -0.024986 -0.090681 -0.10551 0.23864 0.02229 -0.059491 -0.050568 -0.081264 0.088373 0.017513 -0.02525 -0.19638 0.22054 0.11316 -0.032962 0.18408 -0.089702 -0.14167 0.01647 0.061158 -0.014253 0.1949 -0.014222 0.094273 0.033931 0.025727 -0.13396 -0.032638 -0.09072 0.17257 -0.1062 0.21417 -0.31258 -0.091583 0.023768 0.077109 -0.18204 0.074886 -0.067808 -0.14759 -0.034084 -0.029176 -0.21586 0.23201 0.16603 -0.12867 0.074298 0.00090507 0.093589 -0.098509 0.084271 0.14561 0.13483 0.037275 -0.17185 0.081289 0.073239 0.11793 0.069543 0.11528 -0.42202 -0.06718 0.061686 -0.29298 0.21911 0.2234 -0.11865 -0.011054 -0.019241 -0.19257 -0.092758 -0.10409 
- -0.12909 0.052792 0.13302 -0.24402 0.20305 0.15934 -0.27643 0.06377 -0.19602 -0.2393 0.35262 -0.15205 0.082821 0.10078 -0.31712 -0.043194 0.11341 0.24245 -0.00072781 0.025649 0.1182 -0.24763 0.040451 0.10004 -0.056713 0.10823 0.05364 -0.10488 -0.077263 -0.011514 0.04716 0.20559 -0.088548 -0.10507 -0.042759 -0.1426 0.28797 -0.16445 -0.12504 0.084482 0.24122 -0.072926 0.18359 0.14659 0.45022 -0.081622 -0.045567 -0.025097 0.27637 -0.046661 -0.10743 0.033656 -0.049996 -0.090005 -0.13734 -0.18439 0.062874 -0.077922 0.46955 0.083336 -0.25318 0.16948 -0.096799 -0.05776 0.050138 -0.068942 -0.10805 -0.11384 -0.052928 0.055431 -0.26974 0.36123 -0.3789 0.12689 -0.010663 -0.16898 0.097092 -0.31332 0.13837 -0.070069 -0.24787 -0.25702 -0.0091732 -0.27983 0.17305 0.19412 0.025295 -0.054495 -0.015654 -0.1523 0.22641 -0.22507 0.080949 0.10601 0.142 0.077471 0.063363 0.30899 0.24318 0.18962 0.0057334 0.086927 0.084281 0.045238 0.032935 0.36772 -0.19415 0.078405 0.13439 0.14983 -0.10822 -0.042083 0.15726 -0.045337 0.1267 -0.16614 -0.0033046 0.14426 0.096335 0.11355 0.16328 0.016114 -0.1253 -0.070613 -0.25734 -0.081958 0.39525 -0.074679 -0.042507 -0.16997 0.093708 0.037248 -0.056487 -0.13056 0.29019 0.1386 -0.075736 0.013804 0.01059 0.033941 -0.080988 0.2113 -0.00019859 0.058166 -0.10624 0.19709 -0.17623 -0.064972 0.034857 0.19979 0.34179 0.17866 0.015775 -0.1566 0.12045 0.13923 -0.27657 0.18856 0.030052 0.13424 -0.041038 -0.25358 -0.19029 0.12127 -0.1321 -0.20965 0.21039 -0.29775 0.27918 0.22385 0.031158 0.051543 0.11177 0.13978 -0.15289 -0.28675 -0.076907 -0.015678 -0.063049 -0.1502 -0.23085 0.12708 0.22471 0.20459 -0.11193 0.069481 0.01869 -0.083501 -0.25773 -0.19454 -0.31423 0.1114 -0.17364 -0.1228 -0.1078 0.039794 -0.14232 -0.10412 -0.069467 -0.26572 0.13296 0.25891 0.14694 0.22401 0.15243 -0.018339 0.057989 -0.21086 0.21401 -0.059665 -0.16106 -0.29415 0.06833 -0.074218 -0.25153 0.13097 0.17383 -0.36132 0.031161 -0.10136 0.25109 0.13918 -0.13588 -0.09662 -0.22796 -0.1493 -0.13864 0.15166 -0.18032 -0.27213 -0.15213 0.075472 0.08184 -0.12387 0.024437 -0.099771 0.046445 0.0095203 -0.17367 0.11319 -0.11367 0.010165 -0.425 0.015879 0.13903 0.18096 0.1798 0.076183 -0.04256 0.1787 -0.0099609 0.082946 -0.073915 -0.0066227 0.0096015 -0.35737 -0.076328 0.36013 -0.052265 0.30298 0.0062523 -0.14882 -0.15516 0.49771 0.18826 0.21116 0.025474 -0.095766 0.059205 -0.47704 -0.24051 0.21574 0.074377 -0.1926 0.018825 0.24621 0.20258 -0.12365 0.2354 0.12591 0.28771 -0.24915 -0.045946 -0.14363 0.1996 0.13415 0.21541 0.27898 -0.47487 0.098793 0.12122 -0.27999 -0.068681 0.014232 -0.046814 0.28769 -0.038598 0.079713 -0.055816 0.021694 
and 0.15128 -0.045277 0.21856 -0.15949 -0.093503 0.20204 -0.16912 -0.26244 0.0003714 -0.01635 0.049149 0.010213 0.040187 0.13497 -0.10924 0.037082 -0.097143 0.11986 -0.031909 -0.077047 0.11018 0.22243 -0.19151 -0.077974 0.028861 -0.020505 0.075305 -0.10621 -0.032137 -0.0002934 -0.0653 0.058939 -0.071896 -0.02388 -0.11382 -0.11318 0.0096851 -0.063726 -0.12786 0.046983 0.013934 -0.24272 0.070976 -0.18616 0.17917 0.072031 0.048804 -0.0327 0.057002 0.16965 0.069897 0.024915 -0.03407 0.1528 -0.10671 0.11156 0.094397 -0.0058346 -0.0033874 0.085981 -0.22315 0.10558 -0.0097228 -0.12282 -0.13337 -0.073765 -0.2382 -0.10468 -0.05208 -0.1682 0.015087 -0.095152 -0.074553 -0.080532 -0.0098507 -0.19695 0.1552 0.093419 -0.054487 0.086084 -0.1371 0.015056 0.11547 -0.085868 0.062399 0.091582 -0.089799 0.12112 -0.19479 -0.14879 0.045482 0.079319 -0.077478 0.014081 0.030109 -0.0072138 -0.03918 -0.08904 -0.11549 0.085165 -0.13532 -0.19592 -0.0040823 0.1213 -0.016802 0.12997 0.051226 -0.021325 0.044366 0.17739 -0.10056 0.063935 0.085118 -0.093893 -0.00237 -0.21932 0.046371 -0.0046655 -0.1112 -0.13248 0.17855 -0.19045 0.0011443 0.07141 -0.18811 -0.23006 0.18062 -0.078329 -0.095288 -0.031363 0.10756 -0.11638 -0.098684 0.073503 -0.0021027 0.014741 -0.037075 -0.14369 0.050311 0.064689 -0.20211 0.18736 0.19742 -0.032024 -0.036892 0.16503 0.15602 -0.18449 -0.0012655 -0.036589 -0.095201 -0.087705 0.11604 -0.040423 0.06235 -0.098731 -0.011967 0.10197 0.11266 0.20992 -0.027058 -0.027334 0.056652 -0.0092453 0.0017706 -0.13702 -0.0071661 -0.00201 0.019347 0.02498 -0.14818 0.080145 -0.021608 0.18829 0.052828 0.032748 0.12911 -0.090561 0.072337 -0.089725 -0.14243 -0.014046 -0.090273 0.065373 0.035841 0.095927 -0.17611 0.13507 0.0065086 -0.034983 -0.03315 -0.047992 -0.073096 0.010636 -0.044333 -0.072223 -0.22705 -0.016762 -0.083677 -0.056709 0.048781 0.005318 -0.0078401 0.01668 0.10406 -0.12705 -0.048265 -0.1663 -0.020095 0.0065544 -0.14712 0.0043846 0.12144 -0.18239 -0.10299 0.10919 -0.011106 0.059733 0.072226 -0.051421 -0.07392 -0.0067841 0.052099 -0.040927 -0.014547 -0.077612 -0.10818 0.032697 0.089819 0.064925 0.010216 0.26186 0.11565 -0.017904 -0.079687 -0.016315 -0.0067343 -0.086874 -0.05847 0.015064 0.21349 0.020108 -0.072548 0.11275 0.072237 -0.080682 0.086019 -0.057038 0.03706 0.19136 -0.15116 0.20097 -0.16287 0.085614 -0.10088 -0.16975 -0.14967 0.20991 -0.15403 0.30257 0.032549 -0.12105 0.0016815 0.2502 0.062821 -0.068426 -0.033627 -0.10733 0.053302 -0.062983 -0.095132 0.064112 0.1037 -0.17279 0.019721 -0.18514 0.15247 -0.19477 0.12475 0.1992 0.0018117 0.10925 -0.1814 0.031595 -0.15329 0.19458 0.062261 -0.038606 -0.31968 -0.034057 0.063835 -0.25937 0.11516 0.034223 -0.13024 0.058371 -0.21824 -0.15676 -0.12122 -0.17556 
) 0.12667 -0.085821 0.053354 -0.34564 0.12577 0.23666 -0.41451 -0.23271 -0.22313 -0.32008 0.14909 0.11832 -0.15083 0.35176 -0.16808 -0.15364 0.065559 0.17311 0.0050547 -0.0030492 0.01769 0.015176 -0.016048 -0.084174 -0.049703 -0.092875 0.21034 0.036789 0.043558 -0.0032073 -0.070647 -0.050091 -0.06746 -0.12503 0.089468 -0.1794 0.124 -0.029298 -0.040576 0.07626 0.16625 -0.018575 0.024933 -0.11758 0.19058 -0.1588 -0.012272 -0.0032567 0.19654 0.13831 0.13213 -0.029282 0.033333 -0.17507 -0.21718 0.10631 0.0010471 -0.023443 0.073091 0.10111 -0.254 0.21767 -0.025782 -0.13472 -0.34841 -0.061431 0.019345 0.068788 -0.15898 0.052412 0.06054 0.05553 -0.34862 -0.073003 -0.089126 -0.060633 0.21099 -0.069734 0.014095 -0.03597 0.041034 0.032384 -0.084817 -0.063139 0.2415 0.16967 0.028189 0.1017 -0.096254 0.057425 0.052572 -0.31562 -0.02492 0.059357 0.17213 0.16326 -0.14925 0.13069 0.21485 -0.10553 -0.19241 -0.049931 0.10861 0.047357 -0.16446 0.032739 0.017292 -0.087626 0.096468 0.071577 -0.21152 0.051017 -0.13541 -0.031817 0.072398 0.0024625 0.10336 -0.13724 -0.019531 0.091064 0.12676 -0.10156 -0.24456 -0.080919 -0.118 -0.26729 0.3286 0.12092 0.028589 -0.061366 0.14979 -0.010792 0.028945 -0.058816 -0.0038671 0.12531 0.19279 0.041181 -0.09336 -0.1595 -0.22908 0.10676 0.10504 0.20181 0.031613 0.14882 0.02371 -0.10612 -0.24183 0.1578 0.15739 0.10534 0.1657 0.16182 -0.010868 0.04988 -0.2309 0.21498 0.16236 0.25323 0.0022533 -0.25947 -0.0083363 -0.20555 -0.11507 -0.29007 -0.066103 -0.12992 0.1564 0.10131 -0.12036 0.049135 -0.029468 0.14258 -0.24369 -0.14929 0.23464 0.031056 -0.015561 0.044304 -0.011785 0.055214 -0.20395 0.27492 -0.0076114 0.021546 -0.17864 -0.010988 0.017128 0.059695 -0.035147 -0.15369 0.087176 0.0020836 -0.095437 -0.091196 -0.28701 0.062203 -0.090897 -0.090382 0.31369 0.086734 0.087649 0.046805 0.1396 -0.073517 0.026051 -0.12693 0.093365 -0.13968 -0.066132 0.12858 0.098128 -0.22984 -0.1819 0.19535 0.06309 0.15533 0.099167 -0.010607 0.020149 -0.053328 -0.17519 0.03324 -0.10464 -0.097284 -0.057048 0.17933 0.042713 0.028403 0.19433 0.14855 0.14658 -0.029343 0.11896 -0.01914 0.1003 0.078939 -0.15952 0.13569 0.03748 -0.15931 -0.16803 0.099289 0.047467 0.0075553 0.01605 -0.073088 -0.014727 0.14429 -0.063634 0.14599 -0.28187 -0.013411 0.19222 -0.29229 -0.02319 0.072471 0.23272 0.28579 -0.046736 -0.022337 -0.039969 0.19762 0.079983 0.18756 0.16841 0.027567 0.20965 -0.17362 -0.27746 0.070379 0.17078 0.086576 -0.038545 -0.15406 0.22417 -0.12358 0.02201 0.0067158 0.15801 -0.089637 -0.038298 -0.14148 -0.21051 0.13226 0.25974 0.12606 -0.34799 0.066766 -0.12477 -0.24915 0.010461 0.25188 -0.21717 0.033161 -0.26155 -0.053191 -0.22032 -0.029833 
( 0.19199 -0.1566 0.026965 -0.29946 0.13728 0.2357 -0.3477 -0.32146 -0.28926 -0.36802 0.11096 0.10875 -0.14053 0.389 -0.21659 -0.21316 0.033749 0.17484 0.072045 -0.014269 0.062877 -0.057012 -0.10225 -0.074499 -0.052419 -0.047435 0.24319 0.037865 0.012719 -0.053378 -0.10335 0.060231 -0.057009 0.0038316 0.11008 -0.16048 0.12202 -0.01217 -0.028122 0.13571 0.28022 -0.021027 0.075374 -0.11356 0.20212 -0.11991 0.044491 -0.055993 0.17067 0.13607 0.12147 0.046298 0.077862 -0.10681 -0.23519 0.074492 -0.10353 -0.019324 0.038503 0.085402 -0.22 0.26928 -0.097238 -0.19273 -0.26452 -0.12376 0.012323 0.040974 -0.16872 -0.0074795 0.14335 0.072821 -0.24567 -0.043223 -0.028169 0.0052311 0.17718 -0.010052 0.003942 0.015709 0.025487 0.014993 -0.050865 -0.089954 0.25424 0.25656 0.057642 0.056576 -0.086689 0.040518 0.069825 -0.26092 -9.0238e-05 0.14014 0.18049 0.18646 -0.14214 0.16343 0.2355 -0.11355 -0.25834 -0.033437 0.11453 -0.022823 -0.19129 -0.021692 0.004915 -0.072467 0.15883 0.042242 -0.26852 0.043914 -0.074679 -0.041814 0.14393 -0.0017656 0.038711 -0.055696 0.022404 0.16416 0.11603 -0.123 -0.29723 -0.055182 -0.12788 -0.22101 0.34777 0.15503 -0.047116 -0.1026 0.14641 -0.032444 0.01657 -0.053678 0.045166 0.065327 0.15569 -0.011715 -0.12588 -0.14847 -0.24803 0.12257 0.039123 0.2049 0.073357 0.19968 -0.0075796 -0.094142 -0.23668 0.13938 0.12379 0.10231 0.16581 0.1244 -0.05135 -0.0064638 -0.20154 0.28471 0.13787 0.27912 0.0014586 -0.25931 -0.020898 -0.13776 -0.10541 -0.26445 0.013045 -0.13952 0.1238 0.048434 -0.088837 0.020638 -0.042325 0.165 -0.26486 -0.15311 0.15439 0.029575 -0.0024967 0.097724 -0.019671 0.10899 -0.19365 0.33188 -0.022334 -0.0092629 -0.15208 0.038818 0.014428 -0.0057597 -0.0016311 -0.1173 0.052716 -0.00014987 -0.15989 -0.12045 -0.25178 0.0024951 -0.167 -0.10458 0.28429 0.10153 0.16732 0.092755 0.12866 -0.073741 0.044617 -0.13446 0.090974 -0.19864 -0.11162 0.1785 0.061251 -0.20969 -0.24155 0.10009 0.087551 0.18637 0.14648 -0.054889 0.024718 -0.056919 -0.15874 -0.022349 -0.1887 -0.085257 -0.043283 0.22417 0.060395 0.026481 0.21591 0.17541 0.074567 -0.017038 0.043915 -0.012488 0.14292 0.057745 -0.16129 0.19823 0.066328 -0.12545 -0.21491 0.080195 0.059495 -0.043316 0.097471 -0.047097 -0.027016 0.11629 -0.033878 0.20122 -0.28419 -0.070053 0.24056 -0.31123 -0.029325 0.097992 0.23152 0.24637 -0.10166 -0.0043873 -0.033336 0.18313 0.091929 0.19934 0.15325 -0.011788 0.14083 -0.16836 -0.247 0.02972 0.21073 0.098381 -0.053719 -0.17968 0.2881 -0.10204 -0.0035988 -0.016497 0.16523 0.028983 0.0072353 -0.093626 -0.16678 0.10449 0.18143 0.17368 -0.3534 0.062759 -0.1524 -0.18087 0.073243 0.26248 -0.23445 -0.0011519 -0.26338 -0.030533 -0.27053 -0.013744 
a 0.019387 -0.013107 0.11943 -0.42446 0.058469 0.24378 -0.24015 -0.0036051 -0.13772 -0.018575 0.02187 0.081196 -0.1353 -0.020425 -0.10753 0.13063 -0.053953 0.055045 -0.1105 -0.31226 0.19019 0.0034087 -0.14493 -0.030128 -0.073503 -0.057705 0.085187 -0.12331 -0.008198 0.053692 -0.03696 0.079856 -0.054062 -0.011234 0.019736 0.013786 -0.090413 0.17651 -0.010594 0.027534 -0.027933 -0.075849 0.15685 -0.06015 0.18738 0.026166 -0.12953 -0.12153 -0.012672 -0.14342 0.1399 -0.18397 -0.16688 -0.06542 0.06254 0.019581 0.080557 0.19123 0.11636 0.050588 -0.013715 0.23247 -0.040044 -0.12102 -0.1538 -0.051809 -0.36297 0.070934 0.04536 0.19516 -0.11874 0.046154 -0.13767 -0.066931 0.040415 -0.38398 -0.18765 -0.0038535 0.17129 -0.090333 -0.049315 -0.053724 -0.12055 0.080296 0.020513 -0.11797 -0.03102 0.0023338 0.14642 -0.28506 0.032761 -0.023765 -0.064144 0.13107 0.092261 0.059023 -0.32401 0.41222 0.1534 -0.041172 -0.048173 0.016095 0.10669 0.028824 -0.044665 0.036498 0.051211 0.056368 -0.066793 -0.11027 0.25573 0.10215 -0.032016 -0.1336 -0.086211 -0.075146 0.030679 0.091435 -0.078658 -0.053498 -0.041475 0.09749 0.020467 0.023909 -0.1252 -0.01983 0.10764 0.18533 0.03896 -0.15698 0.18678 -0.15695 -0.086218 -0.012417 0.050998 0.056105 -0.14339 0.0032777 -0.074598 0.012203 -0.12653 0.0036184 0.27235 0.037199 0.10354 -0.065485 -0.090965 0.25421 0.031322 -0.14998 0.12964 0.038568 0.046034 -0.11329 0.21632 0.016259 -0.28027 0.19539 0.10928 0.30903 0.0043062 0.0016858 -0.037599 0.024281 0.040322 -0.12966 0.051994 -0.18764 0.16904 -0.013443 -0.0015038 -0.23244 0.15914 -0.0643 0.017631 -0.12831 0.010752 0.029684 0.0097691 -0.097876 -0.18156 -0.059844 -0.13807 0.079753 0.10431 0.034847 0.027796 0.057963 -0.065098 -0.0039376 -0.061789 -0.0075017 0.23629 0.21033 0.015482 0.072685 -0.27372 0.069603 0.058006 -0.12738 0.17589 0.081537 0.075477 -0.19859 0.023709 -0.067791 -0.029999 -0.011835 0.078335 -0.12857 -0.14466 -0.101 0.0272 -0.0042023 0.051844 0.2627 0.089731 -0.24527 0.091393 -0.042075 -0.023936 0.049627 -0.020804 0.045721 0.0031353 -0.1748 -0.18238 -0.202 -0.21623 -0.051806 -0.086808 0.077406 0.14046 0.0040592 0.020387 -0.056575 0.035904 -0.13102 -0.0382 -0.094185 0.10079 0.079126 -0.029553 0.045774 0.089385 -0.021752 -0.16794 -0.13973 0.29384 0.14689 -0.02526 0.39091 -0.02939 -0.12711 -0.046244 -0.11473 -0.13634 0.38618 0.010481 0.31889 -0.12323 -0.026196 0.02686 0.1354 -0.050569 0.10513 0.067116 -0.016379 0.05757 -0.021216 -0.33902 0.15835 0.05053 -0.078054 0.019943 -0.0038289 -0.031821 -0.15821 -0.016737 0.18026 -0.017689 0.12913 -0.067242 -0.063777 -0.085649 0.095313 -0.03605 0.24567 -0.20967 -0.092134 -0.0033857 -0.32723 -0.048384 0.12138 0.077181 -0.0030561 -0.24581 -0.112 -0.048594 -0.19266 
to 0.10589 0.099075 0.13381 -0.10617 0.10024 0.30604 -0.062939 -0.086429 0.062438 0.12901 0.095006 -0.028348 0.092719 0.037851 0.095961 0.021496 -0.12925 0.12713 -0.084779 -0.11422 0.16147 0.36781 -0.21526 -0.032582 -0.036755 0.082576 0.14025 -0.052683 0.1029 0.10255 0.040341 0.22011 0.14628 -0.088741 0.095457 0.0026101 0.21832 -0.038495 -0.060534 0.24038 0.0011742 -0.090117 0.16824 0.00022362 -0.0070641 0.12477 0.0059305 -0.087807 0.041164 0.15959 0.21265 0.00059924 -0.17578 0.026764 0.12373 0.05921 -0.020057 0.2294 0.15099 0.14096 -0.039504 -0.093398 -0.00010303 -0.30705 -0.10266 -0.30346 -0.33335 -0.018982 0.073798 -0.29733 -0.090072 0.07642 0.012714 0.21247 0.031601 -0.2626 -0.032774 0.013115 0.2276 -0.16755 -0.068933 0.0026954 -0.052051 0.012887 0.027645 0.038347 0.032564 0.084558 -0.078311 -0.078716 -0.085538 -0.16714 0.065141 0.058164 -0.15884 0.086954 -0.078838 0.28233 0.10256 -0.036021 -0.13504 -0.40191 -0.1264 0.072001 -0.041338 0.053675 0.080806 0.11396 -0.023474 -0.068368 -0.18068 0.053942 -0.019961 -0.035733 0.020852 -0.0082954 0.20421 0.059156 0.010856 -0.039645 0.095956 -0.060766 0.048068 0.17401 -0.30664 -0.20142 0.22095 0.12697 -0.031597 -0.019126 -0.061488 -0.1945 0.0049263 0.011338 -0.15838 0.053533 -0.10442 -0.02297 -0.13785 0.10731 -0.20326 0.082784 0.2768 0.2075 0.088782 0.021553 -0.23573 0.0062637 -0.030752 -0.23886 -0.052134 -0.23459 0.022551 -0.14583 0.29557 0.052409 -0.17314 0.22013 0.091723 0.24812 0.09405 0.021794 0.074229 -0.061025 0.0014702 0.12336 -0.076105 -0.038589 0.058607 0.098244 0.092786 -0.055078 0.056563 0.06766 -0.0023423 0.072905 -0.045466 -0.10397 0.14191 -0.18386 -0.37033 -0.089864 -0.068784 0.092721 -0.056965 -0.10339 0.065459 0.21913 -0.18997 0.07839 -0.03 0.052344 0.1429 0.07268 -0.01366 -0.099802 -0.25828 0.0013629 -0.14928 -0.098238 0.10026 0.14349 -0.19757 -0.00088206 0.073364 -0.19775 -0.11999 -0.072915 -0.061142 -0.098111 -0.17216 0.19984 0.17874 -0.13302 -0.13334 0.16449 0.018941 0.10207 0.037342 0.1064 -0.04062 0.020852 -0.022041 0.029087 0.034416 -0.064659 0.043556 0.19704 -0.03016 0.17455 -0.24406 0.04973 0.0019984 0.026388 0.077857 0.018761 -0.092743 0.13933 -0.096497 -0.12646 0.33934 -0.037331 0.0054689 0.054547 0.035077 -0.1584 -0.035599 -0.00028855 -0.22844 0.29882 -0.21128 0.27678 0.090273 -0.1461 -0.2259 -0.19167 -0.070804 0.23054 0.035778 0.33401 0.077175 -0.20673 0.080785 0.018494 0.0023546 0.27021 0.015728 -0.02386 0.061963 -0.046369 0.013125 0.12525 0.21005 -0.052079 0.15761 0.10074 0.10876 -0.16579 0.02156 -0.029474 0.22487 0.13314 0.020322 0.066977 -0.080262 0.030762 -0.011774 0.14214 -0.23918 0.12938 0.015723 -0.11838 -0.025438 0.078387 0.08169 0.10768 -0.20179 -0.27285 -0.078364 -0.17523 
is 0.24 -0.040677 0.22689 -0.32831 0.092562 0.34485 -0.29228 0.0053363 -0.026105 0.073067 0.19144 -0.0027885 -0.1841 0.0024351 -0.084738 -0.02221 0.018496 0.13103 -0.032638 -0.17767 0.15458 -0.13949 -0.1468 0.12548 -0.12076 -0.0018201 0.18136 0.087132 -0.0098689 0.12073 0.17781 0.31737 0.1442 0.12716 0.1566 0.0089136 -0.21394 0.27921 -0.18101 -0.010619 0.21706 0.046626 0.08087 -0.10241 0.0069696 -0.0050749 0.076246 -0.048721 -0.028911 -0.28231 0.089136 -0.15005 -0.22129 -0.16641 -0.0049769 0.15985 0.095838 0.12883 0.18442 -0.077981 -0.10977 0.19823 0.016946 -0.13775 -0.20065 -0.17002 -0.25003 0.20129 0.093197 0.073098 -0.0098023 -0.16023 -0.12269 0.063018 -0.065454 -0.31388 -0.06585 -0.025868 0.24531 -0.0045423 0.056355 0.060918 -0.084661 -0.0027489 -0.095869 -0.22366 0.084848 0.051561 0.0065352 -0.16027 0.015881 0.12153 -0.1372 0.1175 -0.14398 -0.005033 -0.11529 0.32721 0.31364 0.17198 -0.025972 -0.089774 0.083117 0.32072 0.0086432 0.16827 -0.054516 0.0092193 0.053451 -0.005354 0.055252 0.20768 -0.046726 0.057775 -0.24062 -0.17123 0.17548 -0.10781 -0.079652 -0.018566 0.24781 0.010127 -0.055155 0.0045631 -0.084315 -0.21262 0.28036 0.12255 0.012449 0.0028016 0.020874 -0.18399 0.11228 0.018091 0.24341 -0.011946 -0.11448 -0.018177 -0.19138 -0.048387 -0.075894 -0.086031 0.37248 -0.036419 0.1356 0.0098048 -0.074546 0.11445 -0.019774 -0.056919 0.15362 -0.070737 0.087974 -0.17729 0.084976 0.032132 -0.14787 0.21831 0.023989 0.27292 0.065172 -0.21656 -0.12562 -0.05096 0.053035 -0.2961 0.10692 0.083153 0.13246 -0.025584 -0.11725 -0.057428 -0.12441 0.24292 -0.065012 0.08483 0.063854 -0.0083135 0.13176 -0.14173 -0.23978 -0.24526 -0.26524 0.24197 0.060902 0.1093 -0.073005 0.15055 -0.051076 -0.10906 -0.15596 0.080958 0.2033 0.22956 -0.28048 0.0030621 -0.241 -0.076057 0.04316 -0.19738 0.027652 0.0018809 0.19469 -0.175 0.087185 0.0098009 0.14157 0.016472 -0.096848 -0.024219 -0.082816 0.13733 -0.018803 0.10816 0.098881 -0.021818 0.085986 -0.18407 0.17394 -0.10192 0.12588 -0.08217 0.22356 0.17052 -0.11622 -0.20982 -0.022827 -0.10373 -0.14168 -0.18641 -0.19881 0.16184 0.24173 0.20859 0.012196 -0.17625 0.011756 -0.11055 -0.089331 0.053407 0.29615 0.052973 0.070756 0.060785 0.083794 -0.12444 -0.21721 -0.12721 0.11612 0.067915 0.054146 0.22271 -0.063682 -0.17862 -0.020318 -0.15841 -0.064027 0.24019 0.023551 0.35126 -0.044819 -0.032798 0.11165 -0.010243 -0.045364 0.27061 -0.045978 -0.15642 0.22513 -0.011707 -0.23443 0.089348 -0.022147 -0.019149 0.041296 -0.16129 -0.089388 -0.19183 -0.0036612 0.1795 0.09313 -0.068278 -0.14378 -0.024873 -0.088233 0.086603 -0.046763 0.16632 -0.25884 0.051536 0.049826 -0.26679 -0.15143 -0.03534 0.020039 -0.021753 -0.2903 -0.13296 -0.21696 -0.053517 
was -0.0595 -0.082912 0.026445 -0.25114 -0.034028 0.2841 0.10263 -0.063428 0.087974 0.18689 -0.066301 -0.06175 -0.26507 0.032988 -0.19907 0.060249 0.13911 0.12524 -0.1537 -0.047294 0.23499 0.090488 0.05813 0.1119 -0.1273 -0.17374 0.32288 0.09656 -0.043783 0.29457 0.092358 0.07951 0.26555 0.037242 0.060578 0.012613 -0.25805 0.08516 -0.028743 0.028215 0.26185 -0.083476 0.14628 -0.029736 0.16388 0.025822 0.023178 -0.14784 -0.023224 -0.0074006 0.074688 -0.071012 -0.14517 0.035527 -0.076568 -0.094172 0.18853 0.23516 0.08332 0.025607 0.019374 0.29449 0.098736 -0.27696 -0.26473 -0.087618 -0.12636 0.068216 0.057971 -0.071291 0.10524 0.045871 -0.12744 -0.081668 -0.055263 -0.042623 -0.13335 -0.078275 0.12017 0.10236 -0.028075 0.34458 -0.117 -0.14796 0.2034 -0.092834 -0.05661 -0.018781 0.018832 -0.15268 -0.034894 0.041563 0.04748 0.060561 -0.15634 -0.0025543 -0.042198 0.22642 0.039967 0.096951 0.063233 -0.45409 -0.099472 0.29303 0.068525 0.15308 0.14349 0.0094695 0.17268 0.097725 0.020139 -0.080596 -0.038619 -0.18211 -0.020156 0.022937 0.13714 0.08314 -0.031995 -0.0064436 0.33453 -0.098583 -0.029855 0.034525 -0.039564 -0.22528 0.23345 0.0032433 -0.022875 -0.030221 -0.31962 -0.24623 0.034961 -0.18008 0.017645 0.23155 -0.18517 -0.21272 -0.11002 -0.20197 -0.13998 -0.031758 0.36331 0.29563 0.1599 -0.18686 0.040673 0.082003 -0.18779 0.1882 0.13907 -0.088533 -0.006126 -0.040818 0.013573 0.041811 -0.28172 0.2807 -0.074064 0.34677 0.084123 -0.084383 -0.052861 -0.12818 -0.068183 -0.25653 0.073854 -0.068847 0.094446 -0.10446 -0.099364 0.034983 -0.2927 0.20767 -0.11766 0.11305 0.039619 -0.035895 -0.01767 -0.29684 -0.066925 -0.29622 -0.15888 0.15851 0.13946 0.13133 0.046303 0.061209 -0.20557 -0.12937 -0.042439 -0.091735 0.11938 0.031104 -0.26026 0.18252 -0.47215 0.12282 0.11478 -0.20685 0.043713 0.19397 0.18601 -0.2051 0.18636 -0.030766 -0.12078 -0.10539 -0.06678 -0.10817 -0.25266 0.095471 -0.05504 0.095732 0.036409 0.021355 0.092755 -0.11018 0.17236 -0.011813 -0.20755 -0.071626 0.21953 -0.03665 -0.25662 -0.21893 -0.23142 -0.12586 -0.025222 0.0081607 0.11414 0.13447 0.1771 -0.040434 0.020598 -0.080223 -0.16106 -0.0045823 -0.029549 -0.042948 0.053194 0.066727 0.18237 0.16357 -0.073599 0.013417 -0.22864 -0.064647 -0.05441 0.068805 -0.00021105 0.073315 -0.20098 -0.14805 -0.045138 -0.15127 -0.19811 0.26765 -0.083693 0.075787 0.073052 -0.072766 0.21735 0.13285 -0.21028 -0.024274 0.11383 -0.02836 -0.0065402 -0.003873 -0.1668 -0.049808 0.1949 -0.025112 -0.044348 -0.14441 -0.26026 -0.2105 0.084379 0.12786 -0.23621 -0.16416 -0.15831 -0.082659 0.081456 0.14457 -0.03884 0.15246 -0.26599 0.17171 -0.037054 -0.25522 0.090669 0.043774 -0.12403 0.051949 0.010232 -0.24859 0.11765 -0.014092 
it 0.17793 -0.1178 0.16167 -0.19295 0.075335 0.28869 -0.2281 0.018807 0.025054 -0.075913 0.31899 -0.0070623 -0.18785 0.017713 -0.053045 0.059238 0.030519 0.21939 -0.071767 -0.36009 0.087993 0.0028061 -0.08435 0.24148 -0.28021 -0.11163 0.11319 -0.14489 -0.10331 0.072311 0.16205 0.22884 0.22456 0.01911 0.023512 0.14221 0.0069215 0.071486 -0.065911 0.055456 0.084231 0.16079 0.027982 -0.21698 0.074858 0.085321 0.095697 0.042547 0.017268 -0.035595 0.11295 -0.042334 -0.14529 -0.19145 -0.062947 -0.030844 0.10012 0.19964 0.044918 -0.0091441 -0.34133 0.15195 -0.064584 -0.20629 -0.10498 -0.28159 -0.21067 -0.038447 0.094576 -0.0046064 -0.14581 -0.017763 -0.10411 -0.04696 0.11727 -0.1231 0.10827 -0.1998 0.2992 0.039132 -0.076695 0.10145 0.01845 0.19647 0.029383 -0.10438 0.26521 -0.13495 -0.040814 -0.06488 -0.148 0.075627 -0.098689 0.15246 -0.05324 0.015194 -0.15328 0.45604 0.11508 0.17297 0.028967 -0.42274 -0.15217 0.33214 -0.10262 0.086693 -0.10681 0.0016543 -0.081978 0.13466 -0.0097709 0.10205 -0.096049 -0.0080843 -0.065174 -0.25705 0.0013939 0.10093 -0.084064 -0.15092 0.077431 -0.20195 0.11316 -0.037131 -0.22456 -0.13439 0.31899 -0.056021 -0.079074 0.15095 0.17684 -0.16232 -0.12963 -0.11468 0.023519 0.056503 -0.2102 -0.037546 -0.086492 0.052756 -0.094522 0.013072 0.18676 0.3564 0.073472 -0.18965 -0.045584 0.15796 -0.14527 -0.35328 -0.10712 0.053464 0.38058 0.017961 0.18627 -0.030811 -0.15009 0.11468 -0.010638 0.28222 0.083296 0.15452 -0.033929 -0.024608 0.082351 -0.16172 -0.003145 0.1448 -0.065725 -0.061976 -0.18294 -0.005265 0.15616 0.067488 -0.026292 -0.023649 0.10207 -0.047488 0.070233 -0.059674 -0.51713 -0.041144 -0.099269 0.1756 0.079516 -0.13216 0.077049 0.2343 -0.20064 -0.061448 -0.034943 0.25163 0.32555 0.061741 -0.22542 0.018372 -0.34274 -0.17276 -0.21965 -0.17022 0.17128 -0.049213 0.16707 -0.061232 -0.044695 0.011757 -0.11523 -0.16274 0.015074 -0.14704 -0.087275 0.07901 0.036284 0.089271 0.045352 -0.05085 0.020512 -0.076579 0.21089 -0.16245 0.12899 -0.086978 0.10596 0.086819 0.032784 -0.19684 -0.16236 -0.10236 -0.046249 0.020603 -0.15102 0.064474 -0.01623 0.13268 -0.16738 -0.046417 -0.031448 -0.12545 -0.11112 -0.14816 0.15441 -0.048028 0.10527 -0.084286 0.035631 0.061095 -0.093479 -0.19419 -0.081225 0.13638 0.0029745 0.2114 -0.01981 -0.10117 -0.069078 -0.26359 -0.11201 0.18298 -0.18079 0.29571 0.093285 0.022549 -0.047027 0.1307 -0.088674 0.078029 -0.12695 0.12321 0.080814 0.035751 0.0064054 0.028239 -0.095338 -0.054148 0.19739 -0.0089041 -0.041113 -0.095483 -0.051134 0.3736 0.039249 0.0089086 -0.040123 -0.064954 0.016801 0.081016 -0.025566 0.18201 -0.16252 0.038371 -0.064784 -0.31241 -0.025094 -0.011892 0.16351 -0.024495 -0.2251 -0.16768 -0.11775 -0.20239 
for 0.013807 0.16222 0.55467 -0.41438 -0.15296 0.20731 -0.065503 -0.091032 0.012316 -0.014757 0.060253 0.066013 -0.17806 0.16764 -0.21207 -0.14425 -0.04735 0.18503 -0.0017874 0.10819 0.31192 0.16662 0.093035 -0.31282 0.052621 0.040632 0.36508 0.027428 -0.060133 0.10594 -0.023422 0.32912 -0.064395 0.044336 -0.0089696 0.18806 -0.16391 -0.01482 -0.10696 -0.15734 -0.068907 -0.11791 0.23666 -0.06108 0.10855 0.025724 -0.15929 -0.067456 -0.047636 0.14187 0.021631 -0.083967 -0.057863 -0.11622 0.00048674 0.022517 0.1573 0.076522 0.17513 -0.036587 -0.10036 -0.032464 -0.060571 -0.16857 -0.15053 -0.21223 -0.21718 0.11181 -0.070644 -0.010784 0.063753 0.13144 -0.11166 -0.10072 0.031825 -0.23435 -0.1361 0.12485 0.11997 -0.16186 0.023296 -0.026869 -0.26139 0.026395 -0.061766 0.14527 -0.036012 0.22834 -0.2239 -0.20488 -0.096109 -0.0099321 -0.091474 -0.041428 -0.11817 0.1377 -0.27057 -0.0508 -0.021678 0.095021 -0.10854 0.018214 -0.13685 0.24017 0.013843 0.073303 0.12588 0.15974 -0.013972 0.11839 -0.027256 -0.14344 0.054323 0.020578 0.01134 -0.18094 0.088073 0.10817 -0.062072 -0.24719 0.28439 -0.077242 0.07338 -0.11535 -0.073809 -0.30763 -0.011679 0.11797 -0.20286 -0.0059854 0.14002 0.0029592 -0.11308 0.032245 -0.027002 0.040525 -0.06158 -0.10624 -0.017558 0.013508 -0.24161 0.16791 0.32628 0.14267 -0.040137 0.04058 -0.11926 -0.069011 -0.014273 0.067818 0.055294 -0.1615 -0.025806 -0.025222 0.12757 0.23849 -0.12353 -0.038346 0.19923 0.041391 -0.027677 0.0056991 -0.010913 0.048119 -0.082978 -0.16432 0.1041 0.017992 0.18433 0.27288 -0.081976 0.18017 -0.11169 0.10422 -0.15522 -0.10601 0.018456 -0.0073846 0.26581 -0.21675 -0.17827 -0.003273 -0.11516 0.12788 0.024193 -0.054792 -0.30471 0.088135 -0.18458 -0.0091959 -0.078768 0.0017016 0.0017719 0.10864 -0.12184 -0.14751 -0.23839 0.16967 0.087401 0.0083924 0.10615 -0.14044 0.19641 0.057255 0.12672 -0.096861 -0.27868 0.088535 -0.073979 -5.9928e-05 -0.17777 0.065887 0.10244 0.058701 -0.072391 0.1829 0.17394 -0.052719 0.025439 -0.067066 0.051162 -0.022149 0.17865 0.16415 -0.027776 0.036435 -0.15598 0.0094358 -0.16377 -0.052842 -0.019747 0.28395 0.10367 -0.049114 -0.062872 -0.12186 -0.046493 0.0079304 0.25643 -0.059338 0.11608 0.18374 -0.058466 0.47425 0.059437 -0.25897 -0.03775 -0.1288 -0.15755 0.11463 0.053239 0.33862 0.066489 -0.016228 -0.21814 -0.18804 -0.097861 0.044358 -0.044156 0.2652 0.0081933 -0.032878 -0.0715 0.26154 -0.0054415 0.21206 0.0551 -0.041692 -0.11461 -0.18823 -0.087018 -0.015212 0.3352 -0.021775 0.098467 0.12383 0.040217 -0.3466 -0.025409 -0.017025 -0.058129 0.093475 0.042617 0.029386 -0.05063 0.21209 -0.0070687 0.15096 -0.15804 -0.1804 0.02853 -0.1995 0.03265 0.38241 0.049208 -0.041761 -0.29672 0.030865 -0.16647 -0.13836 
on 0.15774 -0.057597 -0.11642 -0.21612 -0.016689 0.20614 -0.067864 -0.032365 0.16357 -0.13373 0.062167 -0.12066 -0.064034 -0.054416 -0.012363 0.0030633 0.098034 -0.10717 -0.053732 -0.17056 0.037527 0.091641 0.127 -0.0055198 -0.016271 -0.15001 -0.058145 -0.075194 -0.035857 0.27246 -0.20001 0.019133 0.17244 0.052641 -0.05176 -0.25454 0.093893 -0.004007 0.077049 0.1917 0.039451 0.1757 0.14987 -0.083755 0.086449 0.24074 -0.13116 0.1069 0.17942 -0.060035 -0.16692 0.057417 0.049605 0.16363 -0.33658 0.19041 0.26239 0.19068 0.022631 0.38884 0.039471 0.15628 -0.1023 -0.024375 -0.13041 -0.26495 -0.14756 0.13563 -0.044685 -0.063714 -0.14049 0.022737 -0.087223 -0.045725 0.019401 -0.23794 0.049705 0.096284 -0.045374 0.053824 0.083508 0.09935 0.048752 -0.0036861 -0.025574 0.19539 0.20395 -0.15614 -0.13406 -0.10044 0.084496 0.13315 -0.060822 -0.036955 -0.13012 -0.095409 -0.22959 0.29158 0.0051108 0.022505 -0.024115 -0.40949 0.033824 0.26946 -0.10047 0.1936 0.091185 0.049577 0.14467 0.065732 -0.222 -0.071769 0.0194 -0.026549 0.35977 -0.012763 -0.094208 0.096382 -0.094738 -0.0038615 0.085937 0.13987 0.046393 0.033179 -0.028793 -0.34243 0.11738 0.28547 -0.11723 -0.025412 0.15933 0.020823 -0.14867 -0.28937 0.010629 0.075902 -0.36126 -0.098936 -0.12089 0.16895 0.07346 0.083169 0.12514 0.17602 0.11526 -0.033234 -0.047864 0.064222 -0.06093 -0.19244 -0.058026 0.045901 0.052612 0.16049 0.22616 -0.1714 -0.38658 -0.043675 0.13103 0.3206 0.017776 -0.021892 0.12959 0.093697 0.32578 -0.12204 -0.14883 0.010148 0.13567 -0.018 -0.070532 -0.028973 -0.047094 0.26231 -0.29262 0.014791 0.088294 0.11438 -0.12256 -0.4479 -0.42619 0.044588 -0.093703 -0.011702 0.25274 -0.060221 -0.14628 0.10839 -0.046904 0.01988 0.23083 0.060683 0.02437 0.092259 0.12213 -0.10947 -0.34547 -0.023891 -0.25563 -0.22714 0.15758 -0.19335 0.090205 -0.11962 0.055486 -0.21335 -0.097183 -0.0101 -0.1123 -0.11789 -0.1774 -0.2228 -0.014443 -0.060103 0.16935 0.21809 0.071197 -0.0087431 0.13273 0.14202 0.051063 0.16569 0.1227 0.14256 -0.014933 -0.15699 0.052815 -0.023944 0.049205 -0.1887 0.089027 0.16212 0.030142 0.025135 0.12469 -0.29581 0.084298 -0.090942 -0.031977 -0.030324 0.47202 0.088398 0.12821 0.21926 0.099957 -0.11572 -0.16532 -0.086163 -0.19918 0.31779 0.064619 0.15496 -0.049317 -0.027253 -0.021472 -0.28064 -0.12208 0.16404 -0.28096 0.080009 0.11995 -0.15688 0.1983 0.20791 -0.041285 0.2581 -0.069156 -0.1825 0.048141 -0.058109 0.053319 -0.085786 0.050718 0.065526 0.05952 0.079288 0.16946 -0.2804 0.24926 0.077358 -0.051688 -0.023226 0.11146 0.037329 0.21778 0.24816 -0.086503 0.028282 -0.25177 -0.039505 -0.115 -0.43209 -0.24353 0.33187 -0.22563 -0.14588 -0.23639 -0.10468 -0.025962 -0.1864 
s 0.12165 -0.049804 0.15838 0.054626 -0.020081 0.11413 -0.36886 0.0010636 -0.022539 0.080873 -0.012185 -0.037588 -0.055048 0.024101 -0.094884 0.012354 0.080353 0.0035133 -0.15304 -0.11827 -0.028607 0.16732 0.061414 -0.22124 -0.17575 0.10766 0.33461 -0.011432 0.056128 0.070407 -0.032944 0.11484 0.17705 -0.10705 -0.077073 0.036752 -0.23154 0.014135 0.13374 0.014163 0.10708 0.066267 0.10856 0.097973 0.22639 -0.17671 0.2156 -0.031603 0.26785 0.071564 0.34438 0.27426 0.067131 0.12438 0.057893 0.028215 -0.039976 0.053595 -0.0053573 0.023157 -0.13904 0.22262 -0.14364 0.011721 0.050019 -0.029456 -0.26847 0.058253 0.034931 0.022545 0.095503 0.054189 0.1642 -0.038636 0.069292 -0.27029 0.083976 -0.28401 0.07618 0.1066 -0.062801 0.23078 0.087115 0.073628 -0.17274 0.074802 0.22638 -0.26549 0.0081992 -0.044828 0.033965 -0.018378 -0.042117 0.0029356 0.12551 -0.046389 -0.30193 -0.097063 0.11587 0.090393 0.12742 -0.42798 -0.21831 0.058036 -0.053847 0.057429 0.10166 -0.22104 0.0030052 -0.089046 0.063635 -0.0012521 0.08092 -0.037358 -0.24489 -0.066411 0.078852 0.20364 -0.17934 0.070428 0.079334 -0.0024011 0.21546 -0.27365 -0.010229 -0.14787 0.19064 -0.074139 -0.02815 0.25743 -0.074066 -0.30608 -0.0013622 -0.024111 0.08274 0.22344 -0.29684 0.036842 -0.046979 -0.072644 -0.16976 -0.0015876 0.083819 -0.095934 0.056005 -0.028396 -0.019137 -0.041291 -0.026372 0.0045097 0.13001 -0.2724 -0.011053 -0.070109 0.046977 0.097675 -0.22868 0.035296 -0.1552 -0.0035516 0.03059 0.012915 -0.086498 0.017978 0.17128 -0.2332 -0.16023 -0.1654 -0.047477 0.085591 0.16635 -0.18139 -0.21228 0.10042 -0.1334 0.17711 0.068924 -0.093498 0.12162 -0.24346 -0.44204 -0.037725 -0.076529 -0.054051 0.010585 -0.064899 0.13457 0.18529 -0.0045763 -0.069595 -0.040946 0.042862 -0.055412 0.06777 -0.052557 0.036332 -0.33378 0.072945 -0.17083 -0.44824 -0.0046538 -0.15284 -7.2874e-05 0.00085776 -0.061995 -0.17051 -0.36109 -0.1761 0.10194 -0.24443 -0.33164 -0.051084 0.14666 0.019992 0.16285 -0.16544 0.37139 -0.17845 -0.10692 0.13175 -0.10359 0.2264 -0.29733 0.08456 -0.269 -0.10102 0.084035 -0.13896 -0.0895 0.18202 -0.17768 0.10921 0.29253 -0.094433 -0.0067482 0.089086 0.026538 -0.15229 -0.22811 0.18847 0.084604 0.010378 -0.21401 0.13513 -0.049773 -0.29003 0.08553 -0.0045475 0.090173 0.18418 -0.14883 0.071423 -0.13478 -0.017704 -0.25589 -0.092743 -0.21176 0.44239 0.015092 0.28859 -0.13397 0.086398 0.31699 0.25256 0.19681 0.07767 -0.03901 -0.23056 -0.034681 -0.15017 -0.15975 0.095642 0.19819 -0.19578 -0.03854 -0.092128 0.17193 -0.067111 0.28731 0.048386 -0.08164 0.079688 0.14427 -0.048648 -0.15063 0.33739 0.12348 0.33657 -0.074013 0.014734 0.078481 -0.30795 -0.067873 0.22685 0.08488 -0.078104 -0.28835 -0.1049 0.06424 0.050691 
as -0.085285 0.055885 0.081158 -0.28454 -0.10301 0.18213 -0.1823 -0.064927 -0.070922 0.19943 0.15302 -0.063452 0.07176 0.21378 -0.15464 -0.10048 -0.10738 0.11488 -0.044956 -0.11978 0.11919 0.049664 -0.013989 0.052921 -0.0017293 -0.020505 0.28175 0.0042168 0.10656 -0.079939 -0.12985 0.12818 0.10293 0.18919 -0.1263 0.059174 0.17184 -0.10033 -0.22819 0.1323 0.032312 -0.041447 0.13715 -0.19359 0.12384 -0.09091 0.11793 0.06094 -0.046489 -0.091935 0.11455 0.059954 -0.10444 0.065125 0.047518 -0.2475 0.1789 0.078021 -0.023496 0.074552 -0.19788 0.13225 -0.016115 -0.21943 -0.060967 -0.14852 -0.054988 0.1254 0.15603 0.1407 0.13777 -0.14676 -0.21614 -0.14894 0.054716 -0.25087 -0.048155 -0.0022005 -0.025222 0.021637 0.1132 0.081293 -0.072885 0.023647 -0.16034 -0.21161 -0.018768 0.0058487 0.14769 0.11847 -0.067834 0.09235 -0.020471 -0.0065921 -0.069291 -0.1083 -0.22049 0.06176 -0.066782 -0.012845 0.15345 -0.12707 -0.046827 0.14368 0.050498 0.15303 0.0088139 0.024616 -0.10875 0.035305 0.0032571 0.046465 0.032685 -0.042475 0.055178 -0.12814 -0.11103 0.13699 0.080367 -0.041885 0.081632 -0.15536 -0.055812 0.15323 -0.21313 -0.15915 0.13311 -0.077788 -0.067569 -0.082911 0.14002 -0.25366 0.0010044 -0.06319 0.090612 -0.066254 -0.28115 -0.13083 -0.15457 0.1377 -0.04968 0.18705 0.21061 0.24886 0.13597 0.16717 -0.18281 -0.045078 0.0039093 0.071968 0.046494 -0.14282 0.15321 -0.17954 0.017111 -0.12193 -0.039399 0.061572 0.035906 0.020506 0.28054 0.058605 -0.0662 0.097713 -0.020879 -0.12899 -0.026465 -0.066802 0.064786 0.088382 0.0061004 0.021828 0.025792 0.044468 -0.18002 0.12814 0.027378 -0.20732 0.098623 -0.055909 -0.33535 -0.15995 -0.1926 0.21195 0.14358 0.024202 -0.13935 0.25956 -0.27951 -0.19398 -0.1479 0.12479 -0.12718 -0.20727 -0.18001 -0.026671 -0.14724 0.24708 0.037613 -0.14935 0.2662 -0.022581 0.031499 0.051797 0.05042 -0.055278 0.07904 -0.14085 -0.15301 0.004574 -0.17641 -0.0016984 0.061732 -0.3229 0.086169 0.18305 0.11098 0.20883 -0.027773 -0.13124 -0.21395 -0.11166 -0.011147 0.17367 0.027594 0.081542 0.051868 0.012939 -0.025952 -0.02684 -0.029861 0.49005 0.032884 0.047246 0.059973 -0.14258 0.14592 0.019782 0.07108 -0.11703 0.37454 -0.098255 -0.037139 0.11489 -0.079724 -0.085119 0.30863 -0.29049 -0.19079 0.063561 -0.11436 0.1999 -0.13055 0.098432 -0.078983 -0.1387 -0.034791 0.33513 -0.21592 0.3265 -0.12366 0.032865 0.21451 0.25664 -0.1124 0.073329 0.19899 -0.10677 0.017755 -0.18525 -0.040981 0.058808 0.026411 0.15753 0.19064 -0.075851 -0.0074814 -0.22411 -0.17883 0.29893 -0.089081 0.11881 -0.088484 0.046873 -0.024742 0.0861 0.1097 0.11319 -0.0399 -0.037316 -0.1868 -0.38097 -0.11902 0.086628 0.0081519 0.054898 -0.29266 -0.13927 -0.23527 -0.19707 
that 0.1926 -0.012257 0.030398 -0.15026 0.040733 0.25962 0.0076282 -0.042122 0.16592 0.077439 0.12451 -0.13042 -0.13892 -0.025053 -0.23273 -0.041603 0.055624 0.18277 -0.17603 -0.13614 -0.058592 0.31587 -0.2054 -0.065033 -0.15077 -0.013985 0.24532 -0.034347 0.17098 0.1182 -0.017536 0.11146 0.065984 0.14383 -0.075991 -0.014799 -0.044128 -0.10937 0.033613 -0.043757 -0.0051905 0.10386 0.22027 -0.26976 -0.016067 0.029658 -0.14492 -0.024546 -0.027254 0.15505 -0.0078766 -0.01518 -0.13873 0.035821 0.071228 0.038267 0.17107 0.099844 0.028032 0.1283 -0.066004 0.12349 -0.010919 -0.047954 -0.1683 -0.22459 -0.24608 -0.09667 0.01236 -0.087623 -0.13795 -0.12954 0.05221 -0.042473 0.11261 -0.15533 -0.097224 -0.086521 0.065727 -0.041788 -0.062702 0.079696 -0.039554 0.0040621 -0.038658 -0.068524 0.10352 -0.089538 0.041121 -0.080615 0.042902 0.046302 -0.030611 0.11042 0.020051 0.083102 -0.27093 0.24333 -0.088841 0.10012 0.16457 -0.28019 -0.16545 0.077548 -0.16989 0.15546 0.088739 -0.13779 -0.066387 -0.11112 0.14539 0.072014 -0.051447 -0.08333 -0.13647 -0.16397 -0.065082 0.095985 -0.079082 -0.012542 -0.088412 -0.16643 0.18694 0.091113 -0.45405 -0.251 0.14199 -0.016558 -5.8708e-05 0.26567 0.077778 -0.17493 -0.32648 -0.028479 -0.095612 0.058745 -0.11068 -0.010614 -0.078312 -0.14089 -0.033864 0.0028908 0.17867 0.19605 0.062747 0.025998 -0.028869 0.18163 -0.032185 -0.068697 -0.187 -0.24505 0.049391 0.072838 0.1811 0.11524 -0.18737 0.12295 0.04506 0.10999 0.085545 0.082702 0.23976 -0.020725 0.06811 -0.039421 0.029889 0.05861 0.021419 -0.088966 0.022681 -0.01958 0.18545 0.068439 -0.24476 0.059179 0.023189 0.044197 0.14858 -0.085835 -0.24704 -0.13833 -0.0046075 0.087151 0.10917 -0.1409 -0.038932 0.33043 -0.060017 -0.010092 -0.031136 0.18166 0.29601 0.14859 -0.0073047 -0.16282 -0.28845 -0.045879 -0.13045 0.073929 0.25111 0.17519 -0.10156 0.064945 -0.0044678 -0.072442 -0.26536 -0.099952 -0.1661 -0.047099 -0.20683 0.017009 0.19709 -0.043468 0.02052 0.15386 0.061653 -0.05212 0.03984 -0.13202 -0.024791 -0.02232 0.098737 -0.078561 -0.00088375 -0.057203 -0.029045 -0.040351 0.027493 -0.044358 -0.19266 0.22657 -0.20187 0.050977 -0.1395 0.078496 -0.0012697 -0.17233 0.046468 -0.081076 0.33793 -0.018833 -0.0023237 -0.033971 -0.084909 -0.19539 0.10601 -0.32853 -0.017807 0.19815 -0.059235 0.40818 0.017201 -0.062385 0.046104 -0.043552 -0.087219 0.11675 -0.098235 0.37835 0.054549 -0.10047 -0.051239 0.20813 0.0068762 0.092018 0.033101 -0.055819 0.003529 -0.24498 -0.07711 0.042719 0.0026395 0.054955 0.11563 0.094458 0.0017585 -0.23922 0.1178 0.32825 0.035561 0.16186 0.036635 -0.002738 -0.14913 0.14125 0.09859 0.036249 -0.15325 -0.14271 -0.085503 -0.030577 0.0094566 -0.13327 -0.22945 -0.16306 -0.21773 0.08001 -0.1583 -0.34244 
from 0.13644 -0.29595 -0.10515 -0.18165 0.010729 0.29042 -0.071276 0.021674 -0.06604 -0.042815 0.046278 0.13886 0.12993 0.12272 0.027968 -0.017406 -0.081111 0.4011 -0.22625 -0.096987 0.030621 0.35262 0.030619 -0.05321 0.0048407 -0.33111 0.25544 -0.14786 -0.022821 0.29881 0.21397 0.12858 0.35038 0.061515 0.0073421 -0.25502 0.055115 -0.095018 -0.16346 -0.038591 -0.037394 -0.15442 0.13915 -0.074913 0.0065752 -0.043327 -0.30649 -0.042379 0.00064946 -0.0060297 -0.032233 0.0038117 -0.17199 -0.037718 -0.24026 0.084573 0.22308 0.2652 0.097385 0.24556 0.071402 0.10653 0.27092 -0.091294 -0.13582 -0.26683 -0.16758 -0.022793 -0.13966 0.14967 -0.14778 0.12269 0.19249 0.0090797 0.019652 -0.26862 0.080983 -0.12281 -0.26684 0.069883 -0.27211 0.16714 0.1881 -0.20321 -0.14376 0.22316 -0.02258 -0.051475 -0.18703 -0.061021 -0.22768 -0.17436 -0.061557 -0.17911 -0.28707 -0.16354 -0.13997 0.03226 0.22115 0.18663 -0.35995 -0.23477 -0.10972 0.27621 0.14682 -0.1285 0.1308 -0.044836 0.037316 -0.08057 0.1695 0.14769 0.17405 -0.093501 0.077025 -0.25515 -0.029462 0.24242 0.15124 -0.018007 0.0083783 0.029961 -0.00094689 0.032414 -0.17853 -0.18692 0.040095 -0.03311 0.18752 0.12516 0.28321 0.12918 0.071081 0.051757 0.027876 0.13751 0.01767 -0.12326 -0.10851 0.065059 -0.34322 -0.0098172 0.23689 0.23871 0.27978 -0.030227 -0.28335 -0.042627 -0.033455 -0.22502 0.33449 0.051175 0.17042 0.10306 0.10464 0.16565 -0.29125 -0.012201 0.095449 0.13118 0.08574 0.038488 -0.14058 -0.054158 0.089239 -0.08039 0.11171 -0.26077 -0.02257 0.22167 0.22071 -0.11172 -0.13562 0.23706 -0.14777 -0.021146 -0.24529 -0.11906 -0.21026 -0.051634 -0.19674 -0.25967 -0.08079 0.32102 -0.11893 -0.024027 0.10533 0.13809 -0.043863 -0.040592 -0.025124 -0.22531 0.2282 0.16738 -0.092838 -0.12288 -0.33251 -0.071152 -0.23585 -0.29635 0.10838 -0.045355 -0.083155 -0.027876 -0.020266 -0.017375 -0.17945 0.010998 -0.10172 -0.51189 0.12247 0.054876 0.0028695 -0.18651 0.32529 0.035156 -0.14836 0.043112 -0.019063 0.049939 -0.22341 0.12521 0.17811 0.012481 0.08177 0.19634 0.11251 -0.10228 0.0011407 0.1839 -0.00041671 0.1463 0.14094 0.071333 -0.010234 -0.17994 -0.049937 -0.22643 0.16321 0.14492 0.05899 0.021146 0.14788 0.28385 0.026844 0.088219 0.30863 -0.12645 -0.1239 0.49602 -0.042505 0.21535 0.20877 0.20913 0.073118 -0.18373 -0.096935 0.09373 -0.16226 0.15206 -0.029005 -0.17866 0.14395 0.30661 0.13476 -0.16453 -0.019199 -0.26306 -0.067894 -0.34242 -0.040515 0.084233 0.18733 -0.022707 0.11947 0.038092 0.12645 0.038659 -0.15149 0.033535 -0.04265 0.54169 -0.046418 0.24675 -0.25721 0.10268 0.13858 0.26929 -0.29355 0.25977 -0.14755 -0.20556 -0.024078 0.061358 -0.080481 0.080187 -0.090406 -0.19646 0.10065 -0.15696 
by 0.063934 -0.11405 0.018747 0.044985 -0.20767 0.21261 0.065152 -0.194 0.13611 -0.011811 0.18958 -0.044329 0.02062 0.074877 -0.2203 0.16923 -0.15803 -0.12987 -0.11516 0.0099656 -0.041138 0.2182 -0.13481 0.046702 -0.05804 -0.21127 0.092339 -0.049808 -0.069515 0.21467 0.22357 0.13056 0.11472 0.099948 0.089994 -0.086799 -0.058354 -0.227 0.15161 -0.025075 0.2904 -0.044713 0.046667 -0.019945 0.18499 -0.068873 -0.077847 -0.10156 0.19227 0.0010685 -0.017858 0.13784 -0.098617 0.15839 -0.17452 0.16198 0.028177 0.13411 -0.070723 -0.28344 -0.13821 0.18259 -0.13431 -0.081266 -0.23163 -0.2488 -0.25044 0.12287 0.0048165 -0.069537 -0.27093 0.11248 0.092807 0.083557 0.26233 -0.23906 0.01668 0.072912 0.14464 0.10291 0.0071451 0.17822 0.062071 0.038955 0.13428 0.11072 0.010093 0.13697 -0.0097789 -0.076461 -0.091671 0.29803 0.057306 0.19369 -0.066405 -0.16986 -0.065252 0.0021008 -0.019142 0.045097 -0.1063 -0.44446 -0.078857 0.48899 0.22797 0.070906 0.096718 -0.078358 -0.052875 0.10236 0.068227 0.097187 0.025964 -0.35987 -0.072536 -0.049111 0.046735 0.29776 -0.11711 0.19951 0.22634 0.18098 0.092311 -0.063807 0.0080373 -0.30895 0.38117 -0.041748 -0.095791 -0.051581 0.019605 -0.067593 -0.026021 -0.21325 -0.049692 0.036649 -0.33562 -0.096667 -0.18145 0.068683 -0.14135 0.15254 0.26091 0.16892 0.14426 -0.027547 -0.29936 -0.089407 -0.054599 0.08634 0.25802 0.011856 -0.0045884 -0.11611 0.023779 0.093224 -0.26895 -0.053513 0.033572 -0.044381 0.020215 0.1233 0.089507 0.087032 0.19943 -0.31583 -0.078256 -0.08396 0.059309 -0.1073 -0.025967 0.081544 0.026063 -0.11014 -0.10069 0.13249 0.13679 0.017334 0.15937 -0.14479 -0.22146 -0.1243 -0.42575 -0.0064574 0.10093 0.028696 -0.31771 0.11104 -0.20416 -0.29958 -0.36522 0.00082909 0.032502 -0.011227 -0.16445 0.23071 -0.24708 -0.015347 0.092881 -0.13465 -0.1358 0.030565 0.2501 -0.15783 -0.14073 0.22701 -0.29228 -0.31925 -0.043472 -0.15545 -0.077649 0.20972 0.1063 0.1071 -0.032018 -0.031533 0.29966 0.10559 -0.20213 -0.11673 -0.20267 0.098638 0.14551 -0.022646 -0.091658 -0.0067518 -0.018696 -0.21918 -0.24495 0.0030057 -0.037422 0.18176 -0.076168 0.12101 -0.2983 -0.053001 -0.11228 -0.056399 0.10865 -0.20065 0.17412 -0.13948 -0.13237 -0.09089 -0.090965 -0.075675 0.15364 -0.099676 -0.044844 0.14065 -0.16125 -0.037906 -0.14342 0.056748 -0.12149 0.0097286 -0.070275 0.21998 -0.098275 0.32555 0.19912 -0.12379 -0.039278 0.20104 0.17371 0.20601 -0.02372 -0.19584 0.04756 -0.14939 -0.18298 0.077929 0.0084599 -0.087978 0.012414 -0.039589 0.06169 -0.23853 0.15724 0.13368 -0.18482 0.033169 -0.36476 -0.15359 -0.27117 -0.0049705 0.18199 0.1133 -0.37966 0.0079491 -0.053061 -0.35552 -0.050606 -0.036218 -0.099493 0.028037 0.048094 -0.18935 0.069876 -0.032271 
he 0.091958 0.11523 0.29557 -0.12491 -0.039777 0.30123 -0.2194 -0.11093 0.15315 -0.039984 -0.068899 -0.07621 -0.010895 -0.023997 -0.14894 0.10313 0.27453 0.10883 -0.27379 -0.052169 0.25864 0.086186 -0.075196 -0.11053 0.02405 0.014638 0.25472 -0.22077 0.013565 0.20222 -0.015371 0.21598 -0.018589 0.22827 0.058789 -0.1862 -0.039828 0.18636 0.01271 0.082136 -0.31033 -0.13739 0.03033 -0.1859 0.1735 0.19924 -0.14294 -0.0070339 -0.086136 0.13306 0.053647 -0.00023484 -0.098335 0.10997 -0.095632 -0.23428 0.34493 0.33586 0.17466 0.13579 0.04072 0.20091 -0.37012 -0.27204 -0.19665 -0.21091 -0.25067 -0.038761 -0.0941 -0.058722 0.023629 -0.015314 -0.067247 -0.17779 -0.14016 -0.0094198 -0.19644 -0.071792 0.14127 0.0032734 -0.21345 0.11025 -0.059622 -0.05207 0.17577 0.097429 -0.26892 -0.11096 -0.0824 -0.19903 -0.19964 -0.21735 -0.060776 -0.031647 -0.030549 -0.092731 -0.12235 0.044716 -0.037028 0.038749 -0.017262 -0.18167 -0.22784 0.11326 -0.031905 0.11813 0.19656 -0.077396 -0.095261 0.34277 0.17951 -0.022581 -0.024384 -0.092013 0.025413 -0.11189 0.43223 0.071099 -0.017421 -0.29589 0.12116 -0.010268 0.022095 0.085755 -0.15195 0.031643 0.030524 -0.049693 -0.032303 0.12514 -0.03364 -0.070899 0.022072 -0.082497 -0.15509 0.1564 -0.21017 -0.26139 -0.043789 0.13809 -0.32836 -0.11734 0.14613 -0.30542 -0.049551 -0.1095 0.20418 0.13815 0.02123 -0.031641 0.14802 -0.085191 0.24122 -0.062141 0.029605 0.053936 -0.062727 0.030499 0.0068301 0.2566 0.19451 0.011662 -0.011356 -0.00052685 0.047375 -0.17624 0.016555 -0.31507 0.11043 0.091929 0.015168 -0.018899 -0.14257 0.062443 0.14246 -0.18235 -0.076663 -0.020331 0.082512 -0.10904 -0.15969 -0.51039 0.094201 0.15256 0.081743 -0.080932 -0.017594 0.32358 -0.1948 0.12637 0.020908 -0.095981 -0.028733 0.041869 -0.19006 -0.13433 -0.48669 0.36053 -0.30477 -0.23129 0.1146 0.044862 0.093702 -0.15229 0.18403 -0.16255 -0.3214 -0.15402 -0.05686 0.06449 -0.2951 0.015883 -0.071143 0.17591 -0.12181 0.22715 0.3159 -0.25672 -0.0024323 -0.12022 -0.13094 -0.23008 0.10565 0.214 -0.081719 -0.23085 -0.16901 -0.057656 -0.051249 -0.012995 0.023817 0.083455 0.13496 -0.13171 0.048243 -0.071508 0.034451 0.084434 0.058439 0.04033 0.09369 0.25446 0.28565 0.43462 -0.30357 -0.056912 -0.12005 -0.30565 -0.12824 0.37799 -0.059707 0.28526 -0.22363 0.016587 0.025229 -0.050788 -0.30563 0.51138 -0.0315 0.39147 0.098971 0.15148 0.08369 0.00738 -0.18853 -0.14558 0.10725 -0.0072452 0.21488 -0.16287 -0.003102 -0.029357 0.2198 -0.045223 -0.13086 -0.18507 0.0123 -0.22845 0.10092 0.15543 -0.24656 0.13618 -0.13228 0.037392 0.23038 0.079278 0.2019 0.18301 -0.26859 0.19488 0.17928 -0.12794 0.23743 0.11137 -0.041682 0.015174 0.0099777 -0.25798 -0.078752 0.074445 
are 0.28908 -0.20515 0.23913 -0.37566 0.19285 0.083075 -0.12991 -0.064997 0.40066 -0.035048 0.09495 -0.32094 0.033732 0.051675 0.060418 -0.0039789 0.0011077 0.22335 0.057459 -0.19424 0.26482 0.13685 -0.043072 0.0771 0.1075 -0.22841 0.27579 0.075767 0.13321 0.10176 0.21967 0.079574 -0.050815 0.52236 -0.19522 -0.3057 -0.11371 -0.15712 -0.10121 -0.0075692 0.19277 -0.089695 0.13938 -0.16574 -0.035 0.1357 0.076772 0.16753 -0.16552 0.057346 0.021766 -0.11531 -0.2234 -0.064363 0.0038671 0.097934 0.08074 0.025569 0.27415 -0.2552 -0.052297 0.072301 0.083585 0.060561 -0.022547 0.063618 -0.19673 0.15118 0.18421 -0.21387 0.013237 -0.15986 0.0031781 0.17972 0.091372 -0.23263 0.11588 0.23086 0.27097 0.13094 -0.062366 -0.13135 -0.06737 0.01879 -0.11573 0.055418 -0.10978 0.17698 -0.24013 -0.13803 0.20046 0.17223 -0.23073 0.074066 -0.051611 0.16844 0.0060035 0.023071 0.00051033 0.36535 -0.089455 -0.11912 -0.080798 0.44633 0.071068 0.25052 0.085492 -0.10083 0.085137 0.1293 0.071167 0.091351 -0.17499 0.049405 -0.21343 -0.4028 -0.097783 -0.086307 -0.021312 0.043976 0.39577 -0.13095 -0.003888 -0.045096 -0.1229 -0.28055 0.22797 0.026423 0.075684 -0.016827 -0.077937 -0.063662 0.04115 0.068902 -0.10571 -0.055776 -0.090197 -0.10182 -0.042192 0.014784 -0.089686 -0.030775 0.34205 -0.006986 0.0828 0.057905 -0.15143 0.19462 -0.046852 0.14538 -0.0678 -0.29002 0.15621 -0.24846 0.0064361 -0.0034042 -0.23586 0.20688 0.1732 -0.0082241 0.27603 -0.11851 0.11409 0.013402 0.17355 -0.26957 0.19912 0.2352 -0.10104 0.093011 -0.051626 0.17973 -0.042637 0.30364 -0.18348 0.16097 0.083741 -0.069164 0.22668 -0.044716 -0.161 0.0075133 -0.31787 0.35361 -0.094809 -0.048629 -0.1385 0.24489 0.053179 -0.10985 -0.042265 0.11716 0.010404 -0.010025 -0.074594 -0.14396 -0.23497 0.078672 -0.19205 0.047775 0.079823 -0.036059 0.1406 -0.027619 0.094433 -0.13407 0.07591 0.0228 -0.44241 -0.01674 -0.030723 0.15279 0.34807 -0.18637 -0.009536 -0.083421 -0.039109 -0.12922 0.20762 -0.16424 0.10594 -0.15143 0.22485 0.061365 -0.0947 0.016059 0.12297 0.060371 -0.20959 0.083345 -0.040313 0.27465 -0.070051 0.093132 -0.073832 -0.31851 0.18053 0.045814 -0.0055015 -0.29732 0.29274 0.15024 -0.15958 -0.054937 0.090094 -0.12472 0.17611 -0.19177 0.11446 0.39126 -0.081276 0.12707 -0.020049 0.026853 -0.022641 0.10937 0.14057 0.010778 -0.15974 0.3226 0.21568 -0.14884 0.11636 0.061075 0.27862 0.13035 -0.025832 -0.076479 0.092943 -0.242 -0.39552 -0.029263 0.12581 -0.15785 -0.26348 -0.18364 -0.10193 -0.22755 0.11109 0.01911 0.097415 0.071853 -0.28754 0.18368 -0.13558 0.060972 0.077677 -0.13488 -0.18477 -0.049804 0.034105 -0.22236 -0.083783 -0.32844 -0.052716 -0.18119 -0.31416 -0.098239 -0.13659 -0.30532 
with 0.18822 -0.010994 -0.084968 -0.095858 0.045642 0.082324 -0.09548 0.080598 0.07055 0.17833 -0.043494 0.009787 0.25003 0.19314 -0.20693 0.016315 -0.086461 0.11094 0.15509 -0.066577 0.49923 0.12526 -0.25642 0.061322 0.13215 0.11409 -0.01613 -0.11112 -0.15961 0.11584 -0.026727 0.08042 0.13976 0.055787 -0.23202 -0.033598 0.079668 -0.18438 0.058141 0.23708 -0.058719 0.074319 0.080568 0.10008 0.21091 -0.18069 -0.051892 -0.016215 0.038296 0.10286 0.12849 -0.082474 -0.064679 0.10058 0.063335 0.14179 0.075081 0.052541 0.11485 -0.11287 -0.22736 0.094882 -0.24683 0.044744 -0.37486 -0.058824 -0.29921 -0.0071225 -0.11341 -0.032144 -0.084658 -0.049719 -0.040397 -0.11791 0.28219 -0.24717 0.2252 0.1544 0.29953 0.18598 -0.069596 0.03986 -0.23342 -0.073552 -0.073978 0.020964 -0.10516 0.1688 -0.10096 -0.082665 0.13525 0.066149 -0.17904 -0.0017604 -0.060753 -0.078013 -0.26731 0.049681 0.12896 -0.056232 0.017692 -0.31998 -0.09282 0.35187 0.014439 0.21121 -0.027071 -0.064494 0.12434 -0.049626 -0.080335 -0.011296 0.15287 -0.01071 0.057621 -0.070549 0.037746 -0.030418 -0.23288 0.084212 0.14792 -0.19597 -0.0707 -0.02455 -0.14328 0.057728 0.069753 0.082909 -0.12942 0.013377 0.14335 -0.14144 -0.29584 -0.10467 0.04932 0.27487 -0.053272 -0.37882 -0.028894 -0.065379 -0.14301 -0.11684 0.30785 -0.078178 0.00051358 -0.10046 -0.19302 0.021902 0.15733 -0.035344 -0.06276 0.067801 0.009173 0.10794 0.23948 -0.0030714 -0.020555 0.1088 0.26461 0.18598 0.046469 0.14916 0.11234 -0.053178 0.069765 -0.036298 -0.10582 -0.15658 0.19713 -0.00057373 -0.15595 0.0080851 -0.0073587 0.11678 -0.15006 0.064146 0.010753 -0.12197 0.00068703 -0.014981 -0.22911 -0.011872 -0.14823 -0.045758 -0.048837 0.018157 -0.46676 0.17673 0.051281 0.15744 0.14672 -0.017092 -0.10358 -0.0090482 0.25712 0.027827 -0.038583 -0.031847 -0.19703 -0.038829 0.0091647 0.27983 0.12059 0.081514 -0.075849 -0.19735 0.01012 -0.12888 -0.01321 -0.018027 -0.13152 0.088931 0.10354 -0.29336 -0.14468 0.060091 -0.0086072 -0.057303 -0.079944 0.17098 -0.077173 0.11061 0.19189 0.07343 -0.13385 -0.039211 -0.089701 -0.066315 -0.088574 -0.061459 0.10494 0.24566 0.0051234 0.076396 0.010708 0.0094066 0.14272 -0.18841 -0.026414 -0.19143 0.26785 -0.0068241 -0.16587 0.19093 0.072818 -0.18376 0.16976 -0.062755 -0.21225 0.19828 -0.06393 0.23696 -0.05292 -0.094488 0.031042 -0.20922 0.16829 0.24025 -0.14247 0.4121 0.093645 -0.20749 -0.027756 0.14703 0.029412 0.042313 -0.048167 -0.062542 -0.08444 -0.064444 -0.010472 0.28267 0.10923 -0.056735 -0.15882 -0.020958 0.097934 -0.39044 0.13195 0.29818 -0.032962 0.17792 -0.12272 0.022778 -0.18012 0.25102 0.16134 0.019571 -0.10986 -0.066338 0.046307 -0.4566 -0.055328 -0.0014485 -0.041898 0.14946 -0.14712 -0.080137 -0.12596 -0.14224 
this -0.0079783 -0.091497 0.27219 -0.14632 0.021086 0.28814 -0.11849 0.019593 0.0065608 0.0044125 0.27893 -0.054348 -0.15519 -0.025096 -0.22411 0.0052801 -0.016736 0.18255 -0.0534 -0.24932 0.17261 0.045927 -0.094512 -0.022681 -0.17016 -0.039952 0.22519 0.024585 0.17091 0.1043 0.05017 0.18855 -0.13793 0.0009594 -0.069715 0.091108 -0.10365 0.0064509 -0.11671 -0.0087282 0.11565 -0.069743 0.19535 -0.15999 -0.085215 -0.0030488 -0.11441 0.10025 0.050712 0.14742 0.10119 -0.10442 -0.21451 -0.09752 -0.11244 0.066359 0.18059 0.3023 -0.1213 0.055106 -0.12811 0.05111 -0.12153 0.0068823 -0.097524 -0.14219 -0.12728 -0.14718 -0.03476 -0.11528 -0.045917 -0.093277 -0.04899 -0.043886 0.19729 -0.31114 -0.18054 -0.22922 0.11773 -0.12564 -0.038359 0.086884 -0.19505 0.15884 -0.10682 -0.10463 0.12855 0.034425 -0.1201 -0.13409 0.067463 -0.075763 -0.075703 0.091364 -0.03692 0.084116 -0.46947 0.2582 0.038217 -0.061523 0.14461 -0.2292 -0.096501 0.026921 -0.070236 0.062275 0.054462 -0.095139 0.10682 0.016768 0.08464 0.10015 -0.053568 0.025241 -0.061626 -0.015133 0.061671 0.031305 -0.043482 -0.085641 0.20018 -0.044563 0.067108 0.020047 -0.16989 -0.15127 0.14077 -0.034175 -0.13319 0.10445 0.063814 -0.18993 -0.17006 -0.24675 -0.1229 0.083512 -0.073162 0.087833 -0.23284 -0.18897 -0.13095 0.15775 0.25524 0.24798 0.26876 -0.010343 -0.20965 -0.13383 -0.16444 -0.096172 0.096384 -0.037067 0.1408 0.039186 0.11342 -0.022384 -0.24866 0.17682 0.0064751 0.21241 -0.085965 0.12166 0.10014 -0.00308 0.0074167 -0.047317 -0.015577 0.0071606 0.095647 0.017565 0.039429 0.10524 0.16405 -0.011268 -0.13861 -0.09095 0.05182 0.16111 0.09191 -0.024094 -0.40633 -0.049614 -0.0080614 0.040967 0.0060486 -0.18879 -0.1372 0.15084 -0.17982 -0.063144 0.027542 0.051257 0.31095 0.07469 -0.11509 -0.22159 -0.36519 -0.09848 0.002021 0.016078 0.28992 0.058866 -0.0024468 -0.1563 -0.13044 -0.033692 -0.18188 -0.086151 -0.097903 -0.18105 -0.085438 0.19346 0.11217 0.094455 -0.039731 0.076549 0.12835 -0.061377 -0.0003125 -0.05843 0.019867 0.020401 0.023511 0.1279 0.10682 0.034155 0.12251 0.054751 0.13439 0.10398 -0.21601 0.038985 -0.0013276 -0.027717 -0.056156 0.029664 -0.0065991 -0.078881 -0.074641 -0.12897 0.27398 0.20082 -0.14428 0.05529 -0.054952 -0.15379 -0.009595 -0.14849 -0.020359 0.21605 -0.042 0.45048 0.076304 -0.12413 -0.21209 -0.12646 -0.12904 0.099486 -0.21175 0.29686 0.10898 -0.3376 -0.20013 0.23696 0.012208 0.20711 0.13943 -0.007056 0.10479 -0.055488 -0.19912 -0.045142 -0.0011678 0.0022439 0.13299 0.12548 0.11094 -0.32676 -0.0046789 0.28318 0.12577 0.26088 0.012788 -0.1737 -0.1286 0.034597 -0.038563 0.085836 -0.22898 0.072306 -0.21876 -0.020968 -0.18399 0.086031 -0.16813 0.084246 -0.29729 -0.070821 -0.1163 -0.35335 
 -0.115 -0.24877 0.014924 -0.0093595 0.12131 -0.052846 -0.29381 -0.089761 -0.12185 -0.12848 7.9278e-05 0.042452 -0.036555 0.41864 -0.18161 -0.1954 0.14098 -0.036063 -0.058073 0.3013 0.17637 -0.17027 0.28504 0.11947 -0.030528 0.16603 0.17225 -0.004761 0.060181 0.17522 -0.23464 -0.021165 -0.026515 0.11752 0.055712 -0.20809 0.028064 -0.12329 0.0073518 0.32337 0.19012 0.0045605 0.29496 -0.27647 0.037003 -0.10311 -0.044397 -0.39008 0.2467 -0.022465 0.27346 0.032507 -0.19724 0.01101 -0.30613 -0.16656 -0.29782 0.075669 0.010859 -0.1141 -0.19502 0.26528 -0.03274 -0.17593 -0.21097 0.018092 -0.11546 0.23275 -0.22991 -0.079246 -0.0098831 0.33175 -0.12796 -0.22513 0.050092 -0.21956 0.031373 0.11893 0.02658 0.017703 -0.28986 0.19448 0.012538 -0.38944 0.23338 0.28874 0.11276 -0.092068 -0.1783 -0.45883 -0.0266 -0.26888 0.1198 0.51322 0.095928 0.056865 -0.20182 -0.27681 -0.16605 0.0064974 -0.039865 -0.23657 0.15231 0.18431 -0.27281 0.29 -0.073537 0.071932 -0.043088 0.12857 -0.50828 0.17746 -0.022607 -0.23834 0.21116 0.1031 0.1372 0.1805 0.11065 -0.22586 -0.033077 0.037749 -0.31479 -0.098305 -0.33325 -0.18629 0.29208 0.25102 -0.10203 -0.0051839 -0.1317 0.12434 0.028165 -0.09048 0.0066909 -0.0098626 0.018524 0.22541 -0.090357 -0.24749 -0.39841 -0.085432 0.14065 0.25648 -0.073713 -0.11869 0.34537 -0.40781 -0.057474 0.28571 0.29419 0.036145 0.069844 -0.034585 0.042869 0.38776 -0.50037 0.25736 -0.027701 0.22051 0.06372 0.12202 -0.14256 -0.00063094 0.0073037 -0.1359 0.021916 0.029724 0.19962 0.036515 0.12527 -0.094029 -0.22122 0.11297 -0.15358 -0.050008 0.14406 0.085916 0.14595 -0.072402 0.0080684 0.1962 0.19424 0.30194 0.13038 0.2389 -0.25973 -0.01569 0.0685 -0.20821 -0.24774 0.14785 -0.16916 -0.26128 -0.07263 0.10543 -0.43189 -0.006787 -0.31117 -0.1526 0.29494 0.2287 -0.099644 0.31732 0.16041 -0.0035437 -0.23273 -0.027254 0.1418 -0.097333 -0.19817 -0.045036 0.035129 -0.30502 0.036813 0.011827 0.26897 0.087858 -0.1338 0.15124 0.14739 0.28313 -0.5397 -0.26842 -0.20705 0.23172 -0.26682 0.59325 0.13262 0.065518 0.19153 0.23587 0.048107 -0.020158 0.3344 -0.10272 0.0087582 -0.024881 0.11207 0.1863 -0.20724 -0.16756 0.10898 -0.066199 -0.27725 0.16455 0.095933 -0.25486 0.07504 -0.076683 -0.016966 0.22579 -0.26903 -0.16022 0.2213 -0.20685 -0.098979 0.21245 0.14757 0.1981 -0.21518 0.15034 0.23763 0.45198 -0.073319 0.063354 0.20233 -0.15011 0.27526 -0.33096 -0.15788 0.044121 0.23367 -0.19262 -0.086499 -0.066684 -0.0098044 0.080766 -0.036853 0.04294 -0.062739 0.18731 -0.32622 -0.083947 0.068579 0.17759 0.13588 0.18462 -0.42718 -0.078777 0.096325 -0.29678 -0.038215 0.31657 -0.28626 0.21329 0.082658 0.045059 -0.18524 -0.14648 
be 0.073398 0.057283 0.2021 -0.13451 0.074647 0.18537 -0.025733 -0.19067 0.18032 -0.041815 0.22921 -0.22205 -0.1722 0.052859 -0.069235 -0.047312 -0.19328 -0.2259 -0.2492 -0.23303 0.13099 0.23994 -0.15657 -0.074422 0.11269 -0.1281 0.27223 -0.042809 0.2472 -0.039561 0.022189 0.097272 -0.0034139 0.36779 -0.03773 -0.013064 -0.011043 -0.14099 0.075425 -0.077072 0.067399 -0.12953 0.15379 -0.29821 -0.040013 0.012164 -0.11455 0.063982 -0.078278 0.062981 -0.040228 0.013543 -0.26466 0.085407 -0.034155 -0.052113 0.23127 0.11806 0.19774 -0.093784 -0.13027 0.14021 -0.053317 -0.076561 -0.25348 -0.34641 -0.10338 -0.18183 0.2356 -0.024689 0.17278 -0.021049 0.15992 0.16616 -0.1102 -0.39241 -0.11661 -0.06196 0.22004 -0.034879 0.29447 0.054418 -0.087425 0.11142 -0.19548 -0.23985 -0.039569 0.032395 -0.11108 -0.018476 -0.12436 -0.086636 0.036748 -0.044907 -0.16843 0.016761 -0.073265 0.30413 0.0037123 0.21625 -0.057056 -0.38594 -0.23351 0.35683 -0.04263 -0.087218 0.17693 0.075915 -0.0032361 -0.10427 0.076423 0.21783 -0.10422 -0.22538 -0.040042 0.071333 -0.075975 0.13122 -0.10041 0.0079097 0.17017 -0.16735 0.17393 0.10647 -0.31912 -0.22539 0.21597 0.028731 0.024135 0.096924 -0.08545 -0.36648 -0.11289 -0.37094 -0.008173 -0.13677 -0.062741 -0.093672 -0.31789 0.079262 -0.16855 0.019018 0.41093 0.16246 0.20569 -0.064131 -0.18452 0.17879 -0.22986 0.011556 0.070726 -0.0096173 0.11913 -0.21056 0.090922 -0.079625 -0.0576 0.1811 0.13296 0.22836 0.28463 -0.19656 0.0031148 -0.18837 -0.058137 -0.21163 -0.079637 0.059213 -0.10214 0.067548 0.013445 0.021498 0.078984 0.011296 -0.27503 0.038117 0.037847 -0.18778 0.04936 -0.069612 -0.40932 -0.11017 -0.17483 -0.11441 -0.061576 -0.07162 0.015322 0.21744 -0.088648 -0.14189 -0.062594 0.12511 0.18216 -0.16921 -0.10697 -0.13705 -0.32631 0.065301 -0.15637 -0.020421 0.20071 0.13238 0.15542 -0.14652 0.13911 -0.081081 -0.026573 -0.47039 -0.19754 0.067026 -0.10119 0.080358 0.26399 -0.064007 -0.063932 -0.20238 -0.011826 -0.11342 0.22208 -0.12485 -0.049537 -0.10424 0.26351 0.098025 0.1272 -0.12497 -0.054056 0.16727 -0.27455 -0.16783 -0.10438 0.34451 -0.17346 -0.09653 0.078916 -0.098574 0.067248 -0.17717 0.043961 -0.19844 0.19791 0.13264 0.032682 -0.05471 -0.041079 -0.037049 0.15893 -0.38253 -0.087725 0.35637 0.038265 0.32427 0.071177 -0.29726 0.038212 -0.047833 0.1176 -0.037586 -0.18666 0.39044 0.34315 -0.24049 0.24115 0.33882 -0.031169 0.046172 0.15801 -0.18703 -0.1128 -0.1498 -0.14947 -0.071842 -0.16634 -0.14899 0.0084204 -0.03153 -0.028558 -0.23403 -0.0052438 0.25951 0.056436 0.048066 -0.17035 -0.091954 -0.035994 0.0491 0.0066207 -0.14439 -0.26912 0.22859 -0.068848 -0.23801 -0.15603 -0.057324 -0.14205 -0.061714 -0.43784 0.090003 -0.21768 -0.43474 
an 0.11593 -0.0413 0.0046912 -0.22707 0.14938 0.29487 -0.1258 -0.10933 -0.14335 0.32792 0.16829 0.14385 -0.037858 0.012504 -0.11017 0.036963 -0.13167 -0.035704 -0.43106 0.12773 0.057174 -0.19373 -0.20761 -0.027615 -0.2087 0.12262 0.37933 -0.19343 -0.0791 0.091473 0.12388 0.030824 0.029296 0.022534 0.046401 0.12067 -0.24231 0.29631 0.0080939 0.086422 -0.19656 0.23681 0.35146 0.020531 0.021191 -0.01214 0.10032 -0.35371 0.088105 -0.12446 -0.21069 0.031952 -0.061497 0.079334 -0.026982 0.31561 0.21571 0.2183 0.23664 0.12606 -0.28989 0.27532 -0.18741 -0.19703 -0.14725 -0.094805 -0.25209 0.16315 -0.24547 -0.09482 0.055281 -0.071361 -0.2555 0.21666 0.08985 -0.2646 -0.13572 0.1739 -0.054691 -0.050354 0.11127 0.3183 0.11635 0.059841 -0.14421 -0.33355 0.11972 -0.062961 -0.042242 -0.15137 -0.04796 0.22575 0.20524 -0.013565 -0.16329 0.18959 -0.24828 0.12642 0.23527 -0.028328 0.031697 0.26512 -0.13681 0.020854 -0.025463 0.16989 0.095276 -0.23939 -0.12157 -0.12799 -0.057533 0.14856 -0.2331 0.077623 -0.027822 -0.035865 0.20637 -0.014869 0.031878 -0.21178 -0.038538 -0.089025 -0.15245 -0.036699 -0.20338 -0.10527 0.29855 -0.1982 -0.12814 -0.0068517 0.41296 -0.11945 -0.014468 -0.076096 0.14624 0.14872 -0.2539 -0.1388 -0.17941 -0.14173 -0.065301 0.23167 0.15237 0.021905 0.080881 -0.092602 -0.34248 0.04898 -0.21782 -0.11574 -0.093353 0.22532 0.17952 -0.012863 0.33104 -0.26502 -0.37358 0.36166 -0.026912 0.20439 0.055529 0.056549 -0.074632 -0.0089068 -0.032588 -0.084148 0.10199 -0.053193 0.16857 -0.19799 0.097907 -0.25026 -0.15836 -0.033883 -0.24714 0.026315 0.11001 0.091409 0.17978 0.075459 -0.60398 -0.28569 -0.31012 -0.074531 0.055784 0.039092 -0.1812 0.036164 -0.077829 -0.15077 -0.17381 0.11705 0.10569 0.25038 -0.073079 0.004669 -0.38028 0.14942 -0.24152 -0.22242 0.18114 0.13351 0.24886 -0.078595 0.33791 0.046034 -0.25757 0.20283 0.39645 -0.04709 0.052815 0.08405 -0.11884 -0.059738 -0.2462 -0.18145 -0.0077679 0.21827 0.27258 -0.20485 -0.29282 -0.1107 0.15149 0.078486 -0.047457 0.18147 -0.13693 0.10267 0.11667 -0.10694 -0.10501 -0.088278 0.049073 -0.0011666 0.27798 -0.024765 -0.37332 0.048355 0.085491 0.025059 0.3734 0.07865 -0.24089 0.089499 -0.029963 -0.17809 -0.028062 -0.25332 0.19432 -0.077187 -0.066106 0.40001 0.089897 -0.042035 0.24596 0.0087001 0.017401 0.10833 0.029346 0.23472 0.27336 -0.27496 0.1597 0.33545 -0.33183 -0.076282 0.035337 -0.24746 0.28249 -0.083075 -0.3518 -0.057841 0.21825 0.31574 -0.015281 0.039712 -0.12508 -0.36118 -0.065571 0.49566 -0.18212 -0.073322 0.011085 -0.24318 0.20816 0.20252 -0.25582 0.10122 -0.25589 -0.25799 -0.21856 -0.29771 -0.13888 0.23009 -0.018725 0.16477 -0.26721 -0.068576 -0.17814 0.15498 
at 0.21773 0.10713 0.065368 -0.51147 0.049677 0.27807 -0.0054747 0.21875 0.17874 0.13772 -0.046469 -0.077248 -0.16996 0.25916 -0.054543 -0.014162 -0.12014 0.066647 -0.14822 -0.12865 -0.0067071 0.1838 0.0071556 0.098717 0.12212 -0.12195 -0.104 -0.012809 -0.1121 -0.092204 0.16934 0.2303 0.12047 0.11256 0.13492 -0.16323 -0.08076 -0.17106 -0.014201 0.24165 0.054946 0.12515 0.24233 -0.11232 0.043889 0.0258 -0.23028 0.073867 0.13114 0.12543 0.017399 0.027322 0.14869 0.18323 -0.23902 -0.083939 0.13218 0.18522 -0.17659 -0.15225 -0.3454 0.031346 -0.15868 -0.16644 -0.19978 -0.1372 -0.013147 -0.188 0.16388 -0.020272 0.023056 0.075987 -0.094407 0.02421 0.0067782 -0.22717 -0.0058103 -0.013846 -0.14441 -0.24603 -0.37227 0.007278 0.0060364 -0.26899 -0.029145 -0.013479 0.30197 -0.12724 0.025508 -0.066732 -0.094934 -0.00066493 0.088366 -0.1808 -0.09034 -0.19067 -0.090376 0.057256 0.12611 0.1508 -0.05828 -0.062312 -0.064268 0.38786 -0.11185 0.076315 -0.049424 0.13776 0.038618 0.25598 0.17743 0.029069 -0.031829 -0.18601 0.015961 -0.074899 0.1971 0.15009 -0.13284 -0.14334 0.3982 -0.14738 0.16535 0.086433 -0.32531 -0.2434 -0.037769 0.147 -0.05493 -0.25749 0.10475 -0.09558 -0.14905 -0.33087 -0.018426 -0.046821 -0.37946 -0.22909 0.050386 -0.023404 -0.18279 0.12713 -0.036832 0.16081 -0.0059742 -0.29061 0.00028107 -0.016246 -0.25009 0.025919 0.053179 0.053759 -0.16143 0.090214 0.079828 -0.10015 -0.23447 0.0032238 0.045198 0.39001 0.29733 0.042068 -0.079703 -0.059575 0.1693 0.11833 0.15765 -0.036597 0.12426 -0.03625 -0.0068482 -0.12944 -0.13962 0.13635 -0.10653 -0.084798 -0.2765 -0.068454 0.15957 -0.43591 -0.18589 -0.001663 -0.20705 0.10633 0.084482 -0.17753 0.050193 -0.033876 -0.023092 0.020489 0.14158 -0.088389 -0.084518 -0.092027 0.11669 -0.34494 -0.32845 -0.25051 -0.48755 -0.32533 0.37301 -0.069044 0.068429 -0.1381 -0.017644 -0.037805 -0.12474 -0.11991 -0.071275 -0.25624 -0.42657 -0.16716 0.19307 -0.28389 0.047858 0.17265 -0.020122 0.064103 -0.034418 0.17535 0.32195 0.22454 -0.05024 0.17272 -0.10903 -0.19496 -0.19309 0.062032 -0.042757 0.18291 0.09194 0.076296 -0.096988 -0.0014523 0.096144 -0.055205 -0.35793 0.15986 -0.057656 -0.00048451 0.14042 0.19974 -0.0021125 0.022166 -0.11545 0.0026491 -0.12946 0.0060814 -0.10332 0.24393 0.32709 0.13288 0.28765 -0.043199 -0.27304 -0.19898 -0.25179 0.15899 -0.054616 0.035277 -0.036314 -0.023244 0.12296 0.26627 -0.091485 -0.034941 -0.11861 -0.094331 -0.07262 -0.11928 -0.20399 -0.05986 0.14243 0.12609 -0.0039423 -0.11556 0.063906 -0.050528 0.17115 0.2166 -0.046659 0.14839 0.17546 0.089547 -0.12136 0.31036 -0.25066 0.059967 -0.10839 -0.07826 0.016837 -0.26484 0.14288 0.23077 -0.33952 0.12629 -0.037288 -0.15136 -0.033568 0.14666 
or 0.1199 -0.0092505 0.20351 -0.20699 0.084338 0.19242 -0.084132 -0.056477 -0.085213 -0.063337 0.084139 -0.063936 0.30325 0.21035 -0.018057 0.065652 -0.084481 0.16641 -0.16937 -0.22374 0.21939 0.14887 -0.24015 -0.27886 0.047121 -0.26022 0.27682 0.044569 0.084863 0.076629 0.10902 0.10902 -0.051515 0.27095 0.064408 -0.1902 -0.10228 -0.012633 0.017958 -0.028901 -0.095569 -0.16318 0.12949 -0.18143 0.047923 -0.031147 -0.22243 0.031742 0.055257 0.057376 0.1101 0.075234 -0.079172 -0.059707 0.10708 0.209 0.11334 0.1153 0.27135 -0.034535 -0.20524 0.030925 0.055211 0.13839 -0.24005 -0.0124 -0.37291 0.18765 0.13126 -0.096932 0.17299 0.14854 -0.21737 0.20418 0.1226 -0.44274 -0.10316 0.041777 0.014123 0.068789 -0.091342 -0.076551 -0.30585 0.052162 -0.016333 -0.035798 -0.028969 0.15282 0.011586 -0.10028 0.12598 0.040866 0.032141 0.016686 0.11979 0.12036 -0.12644 0.22626 -0.042424 0.13457 0.025724 -0.11028 0.11552 0.27308 -0.067952 0.014634 0.15332 0.032621 0.016591 0.012218 -0.0038826 0.031145 -0.16638 0.096371 -0.020303 -0.14628 -0.28285 -0.058344 -0.035181 -0.094526 0.033084 -0.13249 0.083236 -0.20371 -0.18726 -0.077909 -0.020131 0.079979 0.075028 -0.32998 0.16761 -0.13658 -0.059719 0.039739 0.062608 0.019462 -0.044948 -0.092415 -0.16639 0.083309 -0.22798 0.13335 0.35831 0.28017 0.17148 0.18893 -0.017087 -0.008879 -0.029271 0.1429 0.094212 -0.12915 0.10706 -0.24679 -0.020352 -0.033138 -0.14856 0.18304 0.16441 0.27819 0.16618 0.0079553 0.10733 -0.041974 0.21961 -0.15413 0.051621 0.0057833 -0.19917 -0.013579 -0.097384 -0.1341 0.11379 0.17734 -0.049866 0.01913 0.051821 0.044965 0.16493 0.019172 -0.22361 0.096081 0.018942 0.09907 0.069366 -0.17638 0.11966 0.12278 0.081515 -0.15572 -0.11996 0.12684 0.20508 0.11992 0.023036 0.023527 -0.18102 0.10765 -0.18073 -0.0058453 0.072225 0.19482 0.016748 -0.091103 0.084751 0.031058 0.094605 -0.28338 -0.071241 -0.015559 0.02575 -0.19458 0.24892 -0.093381 -0.029301 -0.033142 -0.19626 0.11593 0.070284 0.014204 -0.17102 -0.069757 -0.00093188 0.027639 0.070253 -0.0042504 0.006919 0.027018 -0.082906 -0.12184 0.042601 0.27007 0.078768 0.02563 -0.043261 -0.19476 0.20419 -0.026428 -0.09355 -0.10225 0.13933 0.088848 -0.2798 0.005015 0.19836 -0.20287 0.081374 -0.3672 0.17069 0.24473 -0.02757 0.13205 -0.017525 0.187 0.2834 -0.11679 -0.06765 0.16255 0.032998 0.14444 0.12216 0.011506 -0.083937 0.27403 0.082577 0.098598 0.19059 -0.071961 -0.05866 -0.032301 -0.14705 0.026194 0.017708 -0.1005 -0.0050218 0.1009 -0.10956 -0.3317 0.025676 0.2677 0.12719 0.15266 -0.041427 0.13534 -0.36648 0.015582 0.082378 -0.042806 -0.24777 -0.11502 -0.12975 -0.10088 -0.077187 0.17051 0.085133 -0.026037 -0.33152 0.11339 -0.37933 -0.23076 
i 0.099562 0.72884 0.16176 -0.030216 0.13875 0.35167 -0.16282 0.064974 0.24447 -0.2415 0.16291 -0.52103 -0.29952 -0.038321 -0.20474 -0.03439 -0.0099382 -0.14549 -0.12349 0.0048627 0.079885 0.10787 -0.48854 0.076427 -0.25939 -0.095173 0.019836 -0.15006 -0.086094 -0.34709 -0.24431 0.14814 0.21001 0.48064 0.039265 -0.15645 -0.007675 0.055519 0.3365 0.18129 0.50464 -0.22078 -0.10476 -0.17175 0.16245 -0.25505 -0.17012 -0.031853 0.4988 0.41029 -0.091922 0.031064 -0.033229 -0.17559 0.12724 0.16892 0.11357 0.1114 -0.25886 0.17429 -0.12194 0.0068573 -0.10073 -0.028206 0.011997 -0.19293 0.21605 -0.31384 -0.23354 0.034298 0.0012538 0.02689 0.0023695 -0.099379 -0.20859 -0.17985 0.069584 -0.33239 0.15357 -0.15304 -0.010397 -0.040814 -0.14866 0.024403 -0.17443 0.13839 -0.040238 -0.23886 0.093656 -0.46338 -0.13594 -0.059905 -0.039994 0.16363 0.24792 0.16169 -0.51722 -0.00056088 0.3096 0.073295 0.21228 -0.11152 -0.24789 0.23096 -0.49941 0.052467 -0.0058929 -0.31611 0.20836 -0.23485 -0.16778 -0.15325 -0.24497 -0.23216 0.086887 0.11953 0.10244 0.3823 -0.3031 0.11908 0.24351 -7.0527e-05 0.09255 -0.079096 -0.3831 -0.30697 0.18109 -0.059407 -0.047791 0.11322 0.28924 -0.17585 -0.24018 -0.30196 -0.36298 0.25089 0.010921 0.11872 -0.18395 0.084105 0.017124 0.34638 0.29715 -0.031548 0.03656 -0.18818 0.084106 -0.24101 0.052496 -0.41292 0.1118 0.0026114 0.31457 -0.28951 0.29653 0.31225 0.23658 0.29145 0.14656 0.2063 -0.049209 0.082133 0.2105 -0.099899 -0.014825 -0.19082 -0.14146 -0.26817 -0.12315 0.15854 0.074508 -0.044902 0.052901 0.0045744 -0.1926 -0.0073384 0.02541 -0.018594 0.1004 0.35391 -0.1202 -0.36572 0.036894 0.090954 -0.10111 0.0036802 0.39168 -0.028572 -0.0044944 0.077213 -0.0084173 0.1491 0.061934 -0.15118 -0.10996 -0.035486 -0.75297 0.077656 -0.13451 0.13922 0.42926 0.23816 0.11166 -0.015877 0.059747 0.13823 0.010064 0.27232 -0.26649 -0.24483 -0.55726 0.35048 0.36412 -0.040759 -0.32772 -0.01877 0.1338 0.207 0.053147 -0.1002 0.073598 -0.077811 -0.058237 -0.059769 -0.15166 0.029488 -0.045421 -0.027801 -0.23941 0.12448 0.038003 0.13131 -0.091919 0.09506 -0.26061 -0.24824 0.14703 -0.11274 -0.13841 0.017072 0.010461 0.034584 -0.049581 0.44272 0.36421 0.0084428 -0.045462 -0.54603 0.098278 0.14814 -0.1629 0.43898 -0.39389 -0.33337 0.11447 -0.20527 -0.16053 0.30269 -0.27379 0.31557 -0.30264 0.051639 0.22205 0.1612 -0.03299 -0.22671 0.28761 -0.13958 -0.046808 -0.39913 0.071401 0.048452 0.083684 0.003538 0.070023 0.03773 0.11566 -0.13085 0.23412 0.20044 0.19759 -0.030466 -0.28815 -0.088535 -0.010683 0.19277 0.0097786 0.037476 -0.14938 -0.24428 -0.065742 -0.22498 -0.25629 -0.20366 -0.052706 0.17518 -0.33555 -0.070847 -0.25916 -0.19263 
not 0.13222 -0.071014 0.30283 -0.28768 -0.014839 0.1765 -0.11432 0.014151 0.084485 0.073825 0.012862 -0.20783 0.15401 -0.021054 -0.22643 -0.0093519 0.14088 0.12003 -0.082118 -0.035769 0.075074 0.28803 0.06613 -0.21244 0.16346 -0.065149 0.19061 -0.16934 0.061399 0.16269 0.097699 0.1647 -0.070312 0.37432 -0.1383 -0.030968 0.0045906 -0.087544 -0.026408 0.10645 0.037461 -0.24411 0.26639 -0.16823 -0.040008 0.087953 -0.033117 -0.11478 -0.042693 0.058689 -0.022196 0.10235 -0.13265 0.02119 -0.046528 0.081611 -0.094602 0.3172 0.067878 0.035936 -0.092864 0.16378 0.043352 -0.22105 0.002507 -0.35062 -0.098191 0.020925 0.29674 -0.13331 0.0786 -0.21715 -0.027584 0.10828 -0.00064075 -0.19757 -0.16047 -0.011072 0.12478 -0.010617 0.099855 0.044639 -0.25882 0.15272 -0.14994 -0.15989 -0.14868 -0.047927 0.12801 0.042119 0.072451 0.078476 0.087904 -0.028748 -0.17893 0.11711 -0.37784 0.18869 0.093037 0.082983 0.27789 -0.26151 -0.32158 0.041286 -0.10475 0.30141 0.20813 -0.021504 -0.027953 -0.20323 -0.070216 0.19792 -0.28704 -0.16873 -0.058523 -0.035473 -0.060375 0.0098486 -0.095835 0.080058 -0.032697 -0.22902 -0.028624 0.081341 -0.31935 -0.18456 0.2287 -0.17328 -0.15344 0.29204 0.12761 -0.1482 -0.065699 -0.21522 -0.20754 0.12574 -0.12698 -0.061144 -0.18617 0.069175 0.1207 0.15478 0.27135 0.25605 0.05676 0.22214 0.080632 -0.11845 -0.068134 -0.12079 -0.10368 -0.15924 0.26701 -0.20501 0.19234 0.081054 -0.026131 0.09623 0.086626 0.2354 0.1103 0.15261 -0.041151 -0.12982 0.17881 -0.1019 -0.12963 -0.074036 -0.0896 0.023106 0.10641 -0.030169 0.16171 0.14286 -0.4856 0.027087 0.0047067 -0.031058 0.25635 -0.13592 -0.3964 -0.15587 -0.16723 0.2105 -0.11141 -0.23402 0.19429 0.25626 -0.08241 0.095581 0.051044 0.33408 0.39752 0.14378 -0.028229 -0.05489 -0.29016 0.085958 -0.057435 0.080476 0.2247 0.11673 -0.14939 0.060783 0.23715 -0.20733 0.018177 -0.20419 -0.050052 -0.15433 -0.11628 0.16478 0.30176 -0.11998 -0.2562 -0.063733 0.11716 0.06288 0.02293 -0.11703 -0.1478 -0.014398 0.017952 0.18739 0.1157 0.027423 -0.023163 0.12372 -0.18819 -0.098534 -0.084694 0.24879 -0.13918 0.17723 -0.059645 -0.082791 0.10283 -0.081041 0.053363 -0.19921 0.26111 0.073966 -0.17499 0.02526 0.079455 -0.21318 0.17768 -0.15003 0.089034 0.1452 -0.26973 0.33499 0.046891 -0.12674 0.16193 -0.14357 0.018128 0.28319 -0.083745 0.063556 0.14029 0.036565 -0.11347 0.39804 0.13308 0.10848 0.16354 0.044992 0.31797 -0.2556 -0.13 -0.065262 0.078829 0.068463 0.11856 0.15923 -0.16372 -0.1086 0.1785 0.18647 0.25295 0.051299 0.10358 -0.10423 -0.072392 0.31063 0.081239 0.071747 0.045531 -0.12343 -0.017358 -0.22798 -0.060023 -0.020099 -0.18862 -0.20645 -0.188 0.02554 -0.34661 -0.32523 
people 0.38088 -0.31661 0.14586 -0.44261 0.2698 0.10577 -0.31129 -0.17769 0.15899 0.14275 -0.047333 0.0093645 -0.084909 0.29209 0.029122 0.18746 0.13688 0.18636 -0.27521 -0.14122 0.39741 0.4323 -0.13708 0.049059 -0.17214 -0.28694 0.0086636 -0.33212 0.083723 0.31482 0.18513 0.15589 -0.095501 0.16661 -0.19311 -0.085768 0.25293 0.019989 0.077821 0.1216 0.11989 0.099991 -0.041579 -0.28116 -0.037334 0.068208 -0.046191 0.14387 0.22415 -0.11038 0.068441 -0.13199 -0.15334 -0.15598 0.01658 0.060182 0.24735 0.41071 -0.019595 0.29136 -0.0086433 0.054032 0.041637 -0.19056 -0.22308 0.054236 -0.52031 -0.095845 -0.056369 -0.076075 -0.05004 0.10768 -0.019095 0.04676 -0.1487 -0.23855 0.065827 -0.058061 0.33744 -0.035987 -0.23317 -0.19552 -0.53581 0.24409 0.30904 0.40816 -0.0012063 0.0455 -0.056958 -0.39695 -0.039665 0.072572 0.035281 0.19932 -0.021121 0.2406 -0.047754 0.17667 0.28378 0.31313 -0.39458 -0.010879 -0.088934 0.61463 -0.34536 0.35462 0.34814 0.13191 0.14298 0.28856 0.19067 -0.00025789 0.0088609 0.031952 -0.2403 -0.48047 0.1971 0.24335 -0.25698 -0.11928 0.11435 -0.031742 -0.021693 -0.044409 -0.23093 -0.16737 0.079548 -0.019734 0.051109 0.42777 0.12987 0.13383 -0.056752 -0.012514 -0.11571 0.075527 0.17214 0.24436 -0.20751 0.23347 -0.093416 0.16983 0.042344 -0.070149 0.14407 -0.36133 -0.098673 0.15948 -0.0026766 -0.025075 -0.22586 0.07593 0.30618 -0.27988 0.32509 -0.02423 -0.23138 0.40265 0.067386 0.22414 0.26533 -0.20047 -0.076537 -0.10559 0.35391 -0.12983 -0.091882 -0.12932 0.10509 -0.012547 0.04645 -0.23021 0.090453 0.27452 0.21204 0.087934 -0.5449 -0.19046 0.26076 -0.082933 -0.37649 -0.091688 -0.16438 0.52301 -0.11671 -0.10599 0.4103 0.43088 0.00178 0.30532 -0.074825 0.10276 0.1938 0.29138 -0.30722 -0.13183 -0.096836 -0.037519 -0.02447 -0.19428 0.042459 0.08142 -0.29019 -0.12203 -0.064276 0.20525 -0.1897 -0.2639 -0.12816 0.24514 -0.035415 -0.061603 -0.039798 -0.077451 0.063905 0.36259 -0.14662 -0.022054 0.098786 -0.13159 0.044157 0.24156 0.055636 -0.15532 0.13894 -0.12478 -0.14602 -0.19972 0.0029597 -0.052125 -0.034465 0.10683 -0.069825 -0.33322 -0.3773 -0.27332 0.19543 0.10537 -0.20762 -0.1625 0.2587 0.060217 -0.33688 -0.013079 0.25619 -0.38611 -0.1706 -0.27842 0.0053154 0.23092 -0.040623 0.053734 -0.058774 0.0024129 -0.17757 0.13057 0.050049 -0.31259 -0.00141 0.12255 -0.15075 0.061117 0.14043 -0.078882 0.15276 -0.12608 -0.16142 -0.22545 -0.05578 -0.05802 0.12646 -0.22359 0.10518 0.20261 -0.078828 0.053474 -0.13328 -0.045619 0.19395 0.050969 -0.034564 0.0069163 -0.10159 0.11567 0.10316 -0.093844 -0.10367 0.25655 -0.3201 -0.15874 -0.32783 0.060947 0.25139 -0.2004 -0.18462 0.021185 0.0095795 -0.28378 -0.099042 0.044997 
} 0.13421 -1.0192 0.014029 -0.22007 -0.039066 -0.47478 -0.2335 0.16912 -0.40909 -0.53221 -0.45904 0.265 0.0059715 0.3604 -0.24738 -0.26263 -0.18532 -0.70583 -0.54554 -0.40387 0.3458 0.26037 -0.25618 0.47489 0.069082 -0.21626 0.51917 0.14809 -0.068267 0.18004 0.32227 -0.77465 0.397 0.32225 0.19133 0.1429 0.27798 -0.12065 -0.14158 -0.66247 0.89376 -0.45992 -0.083776 0.030439 0.35209 0.3186 -0.27262 0.29204 -0.16372 -0.30175 -0.25525 -0.12576 0.1309 -0.27557 -0.35332 0.43526 0.12088 0.45147 0.39864 -0.098593 -0.83908 0.44405 -0.52395 0.017393 -0.38934 0.38713 -0.14155 -0.054744 0.34132 0.12712 -0.17317 0.066675 -0.14247 0.43251 -0.2664 -0.24165 -0.21861 -0.42787 0.0047203 -0.65206 0.57304 -0.3892 -0.23352 0.22365 -0.6034 0.32552 0.52434 0.046746 -0.60807 0.59812 0.29986 -0.43104 0.11526 0.20618 0.17932 -0.3542 0.34689 0.37276 0.7 0.1491 0.033265 -0.42959 -0.067395 0.10229 -0.24081 0.73261 -0.027954 0.12034 -0.030605 -0.41742 -0.16503 0.91907 -0.5557 -0.53628 -0.19784 -0.034763 0.11691 0.40131 -0.32268 -0.28637 0.75888 0.54713 0.30569 -0.49016 -0.20418 -0.7432 -0.10711 0.35817 -0.071474 -0.099231 0.56359 -0.43927 -0.17586 -0.2824 -0.46306 -0.98509 0.48478 0.59039 -0.039465 -0.70784 -0.18849 0.096889 -0.40152 0.6115 -0.22931 0.034094 -0.094105 -0.53592 0.80818 0.2411 -0.28418 -0.21963 0.87859 -0.2644 0.44652 0.54081 -0.35474 0.39486 -0.00088852 0.28611 -0.37598 -0.69069 0.04496 -0.25212 -0.34625 -0.16152 0.065552 0.31873 0.31476 1.4323 0.38328 0.12294 -0.25569 -0.072254 0.25645 -0.46341 -0.1972 -0.017195 -0.35625 0.16415 -0.056836 0.14134 0.24575 0.23875 -0.41403 0.018806 -0.14254 -0.40889 -0.080422 -0.50095 0.45751 -0.097233 0.28487 0.67917 0.19658 -0.34275 -1.0176 0.2392 -0.47421 -0.39479 -0.14698 0.038029 0.19062 1.037 0.35849 -0.46844 0.017571 -0.80352 -0.074659 0.052096 -0.32809 0.44588 0.061866 -0.22776 -0.10402 -0.075842 -0.85261 0.17842 -0.52396 0.25191 0.0058079 0.53261 0.076791 0.35554 -0.42353 -0.060523 -0.36016 -0.13635 -0.42609 0.36343 -0.037655 0.19517 -0.18422 -0.10379 -0.29377 0.070729 -0.23625 0.022787 -0.58475 0.26109 -0.64411 0.59457 -0.1384 0.23174 0.24394 -0.32931 -0.33928 -0.55563 0.13808 0.83833 0.14461 0.49844 -0.78099 0.33246 -0.072345 0.28995 0.34715 0.021311 0.29915 0.28747 -0.074946 -0.1273 -0.048428 1.0173 0.60028 -0.08986 0.30671 0.0077348 0.58014 -0.27067 -1.1771 0.24649 0.75091 -0.088603 0.28052 0.3646 -0.25343 -0.88714 0.047512 0.92351 -0.30175 -0.40624 0.23042 -0.20678 -0.33842 0.029307 0.92373 0.58119 -0.21772 0.043033 0.18043 -0.32148 -0.36448 0.34719 0.129 0.6878 -0.21482 0.59032 -0.32427 -0.21135 
other 0.27633 -0.22659 0.11446 -0.14032 0.087438 0.1264 -0.035215 -0.05388 0.12743 0.0044404 0.17499 -0.13781 0.13164 0.0054578 0.1016 0.11436 0.16393 0.14944 -0.22002 -0.1902 0.15076 0.42734 -0.16784 -0.1255 -0.023007 -0.16485 0.11015 -0.17182 0.25665 -0.017235 0.15143 0.058891 0.042486 0.20338 -0.17363 -0.014107 0.2678 -0.24137 -0.19543 0.1397 -0.11074 -0.060166 0.10732 -0.29297 0.099644 0.10776 0.035907 0.31336 -0.059503 0.18008 0.036426 -0.12997 -0.033792 0.036234 0.042513 0.24146 0.081079 0.0067893 0.0040474 0.043587 -0.3226 0.12991 -0.18054 -0.043401 0.014448 0.023603 -0.21384 0.033902 0.094532 -0.13569 -0.039718 0.068989 -0.0075473 0.12441 0.17718 -0.21948 0.26373 0.014699 0.047147 0.26499 0.032232 -0.15128 -0.024454 0.18551 -0.12951 0.096242 -0.031474 0.226 -0.10907 -0.064167 -0.029091 0.025259 -0.26129 0.1029 0.0075102 0.17047 -0.12568 0.097371 -0.23462 -0.015325 -0.012671 -0.096312 -0.12861 0.36032 -0.086402 0.30964 0.071573 -0.17326 0.01972 0.053365 0.033712 -0.039254 -0.0056943 0.18869 -0.19252 -0.2714 -0.20201 0.027574 -0.041616 -0.069096 -0.12462 0.034109 0.065234 0.045643 -0.38231 -0.38387 0.06521 -0.0070884 0.23175 0.094717 0.092094 -0.08271 -0.34909 -0.065519 -0.089636 0.071615 -0.083338 -0.1362 -0.011891 -0.058805 -0.15331 0.2245 0.10215 -0.046959 0.051652 -0.062975 -0.11498 -0.032003 0.15501 0.13375 -0.080128 -0.18435 0.24871 -0.1974 0.063941 -0.15324 -0.16377 0.22598 -0.052129 0.095323 0.30149 -0.028341 0.17051 -0.12867 0.14492 -0.025004 -0.022982 -0.0054421 0.081185 0.19895 -0.16635 0.084035 0.17956 0.12299 -0.1807 0.13906 0.026017 -0.13882 0.11937 -0.12327 -0.050192 0.073298 0.11339 0.24241 0.036168 0.019946 -0.15579 0.23316 0.047346 -0.15684 -0.27356 -0.040028 0.011058 0.029819 0.075331 -0.252 -0.36943 -0.10916 -0.30299 -0.065347 0.16821 0.067961 0.094688 -0.065897 0.071676 -0.2459 0.053518 -0.29885 -0.21093 -0.034143 -0.18554 0.023049 0.27342 -0.15851 -0.099792 0.062929 -0.038599 0.23345 -0.018057 -0.087357 -0.126 -0.14243 -0.025584 -0.18305 0.20605 -0.0933 0.06325 -0.24708 -0.19747 -0.16732 -0.016291 0.25383 -0.091479 0.020212 0.095504 0.063294 0.29552 -0.01285 0.03594 -0.35232 0.29923 0.08678 -0.1849 -0.14911 0.09108 -0.22521 0.27697 -0.14511 -0.016655 0.33154 -0.11603 0.2685 -0.046519 0.13298 -0.24596 -0.20101 -0.10194 0.073358 -0.40812 0.18158 0.089222 -0.07501 -0.050874 0.13699 0.26357 0.054715 0.092503 -0.17442 -0.066634 -0.066039 -0.21735 0.072953 0.072291 -0.15166 -0.084205 -0.076447 0.030289 -0.45995 0.12777 -0.052732 0.17755 0.32253 -0.013766 0.17195 -0.12714 0.12289 0.19354 -0.051424 -0.27583 -0.11804 -0.17014 -0.0083507 -0.010784 -0.031282 -0.15992 -0.14484 -0.23681 0.014755 -0.067135 -0.097373 
